1097 200
pizza 0.04306294 0.34688342 0.016614951 -0.038912665 0.03176196 0.20701924 0.055283602 0.20331849 -0.15636458 -0.05692553 0.013387122 -0.11786703 0.103216864 0.011464901 0.0647993 -0.093380146 -0.0916292 -0.28260806 0.010572841 -0.1242644 0.05162905 0.12609409 0.06239437 0.20815615 0.06374574 0.21436024 -0.04887081 0.4505767 0.03349848 0.07957024 -0.09256545 0.120639816 -0.09317976 -0.22022687 0.113545686 -0.13489518 0.05362951 -0.055937767 0.09194643 0.0065824282 -0.08782524 -0.03692716 0.27246374 -0.07845368 0.10378394 0.18733877 -0.060340386 0.076760806 0.29435772 -0.015420416 -0.033121374 0.11101161 -0.00096854114 -0.100029014 0.05359142 -0.3358546 0.06399186 0.025054784 -0.15937713 -0.016513947 -0.05990812 -0.056444418 0.037435263 0.34079072 -0.016406305 0.09013299 -0.066512614 0.09883901 -0.19967687 0.09579298 -0.2565667 -0.23661979 -0.061044067 -0.036802802 0.042733584 0.06135727 -0.21359952 -0.12952355 0.16616262 -0.07602942 -0.14817147 -0.026864007 -0.043877386 0.1002996 -0.1398169 0.21045618 -0.11625777 -0.21953635 -0.11748271 -0.26525965 -0.0055693462 0.029368535 0.003040834 -0.13780327 0.25466257 0.36197698 -0.110918395 0.16842303 -0.02898092 -0.010171831 -0.1033464 -0.14165783 0.025426619 0.017163187 -0.01137235 -0.020540485 -0.038497366 -0.13670936 -0.11367328 -0.16688901 -0.10083846 0.15882915 -0.0334696 0.016588721 -0.07290144 0.07424236 -0.08429762 -0.14516701 -0.15875469 -0.035288747 -0.2502968 -0.03346681 0.22823675 0.22848026 0.054875758 0.06839155 -0.04170887 -0.100654654 -0.4008305 0.03300758 -0.2208649 0.10857164 0.10437249 0.4314574 0.036689203 -0.08219834 0.16081387 -0.10593998 -0.09342366 -0.070643194 0.086858734 -0.04966517 0.09669411 -0.08817705 0.10834816 0.036648296 0.07343092 -0.056971796 -0.0144760795 -0.19086224 0.028579678 -0.24682528 -0.15561903 -0.04826596 0.22220145 0.03890228 -0.17861147 0.18276997 0.11522548 0.07389693 -0.02829016 0.17231804 -0.032499995 0.20725942 0.105349146 0.060114168 -0.29155377 -0.33542004 -0.10490628 -0.22366229 0.020257879 0.21382226 -0.11111797 -0.084908605 -0.027398905 0.006872517 0.2271793 -0.08549615 0.08092293 -0.0873111 0.11989791 0.050997853 -0.033962216 0.0862061 -0.07932163 -0.07761079 0.005169642 -0.3600876 -0.2833128 0.11006516 -0.17812105 0.27342394 0.12397485 -0.047412544 0.086748496 0.018688168 0.039622944 0.12623534 -0.285061 0.16543275
menu 0.02490704 0.37139732 0.04909649 0.0072435797 0.053557824 0.19350658 0.043658968 0.18794738 -0.14133996 -0.056670878 0.0052526398 -0.12325027 0.09999469 0.03335781 0.09379894 -0.10380176 -0.11964609 -0.30604523 -0.00086289627 -0.07618726 0.055821557 0.105242655 0.070425324 0.19782315 0.044912152 0.21090703 -0.061913334 0.44903505 0.026581952 0.0751961 -0.099550575 0.12793298 -0.08836129 -0.21279864 0.09712599 -0.11091669 0.046621546 -0.036163446 0.06602299 -0.022201922 -0.07761694 -0.07663954 0.2598769 -0.050611857 0.091165535 0.14835104 -0.013933152 0.07182001 0.29471096 -0.03249878 -0.03046026 0.09588065 -0.033883285 -0.10706577 0.057239242 -0.35536203 0.035780024 0.014155493 -0.15358151 -0.018681051 -0.038425755 -0.076659665 0.059546325 0.31445742 7.2103416e-05 0.08925547 -0.06668343 0.10457199 -0.16826318 0.093849644 -0.26482025 -0.23373716 -0.062007472 -0.00900577 0.07187221 0.055881914 -0.21180056 -0.11726436 0.14367531 -0.09289227 -0.15893702 -0.016350526 -0.029287523 0.10317893 -0.12663479 0.20080756 -0.14242172 -0.20977283 -0.12516558 -0.2670627 0.021015434 0.007292247 0.019099599 -0.12894733 0.23992056 0.3418249 -0.07864327 0.18120937 -0.018417513 -0.03629791 -0.1209653 -0.11898609 -0.004864986 0.047167525 -0.07311803 -0.006093629 -0.024458377 -0.11835104 -0.12313928 -0.17916197 -0.09834515 0.14928387 -0.030523159 0.05338813 -0.111092314 0.09810814 -0.0633091 -0.15700758 -0.14159729 -0.009438743 -0.24163808 -0.025055677 0.22327729 0.22867545 0.040753167 0.054878067 -0.053011097 -0.11152916 -0.3951572 0.027043927 -0.20266409 0.095241755 0.13353196 0.41864836 0.047343485 -0.05872403 0.16602883 -0.085348696 -0.08498914 -0.06447187 0.08222367 -0.042042278 0.08653671 -0.085251175 0.09681121 0.024976222 0.14095941 -0.03171929 -0.022719445 -0.20428786 0.0054887733 -0.27579436 -0.18486483 -0.03595552 0.22165002 0.025750315 -0.18806247 0.18986477 0.11423978 0.060387366 -0.0053887223 0.17130636 -0.035716925 0.2066879 0.091231495 0.063991316 -0.30425498 -0.3196683 -0.100154966 -0.20027591 0.04734299 0.22335322 -0.114431426 -0.11405734 -0.025543451 -0.044855498 0.20366836 -0.053888608 0.06068454 -0.11361305 0.09700584 0.10829871 -0.045730844 0.08556784 -0.07026975 -0.096349016 -6.7419045e-05 -0.34775808 -0.26863727 0.10793228 -0.1902752 0.2541059 0.15593857 -0.02624148 0.06958054 0.009911648 0.062008012 0.16064392 -0.25020894 0.12292388
item 0.04010765 0.36590454 0.0417139 0.0028758927 0.05049894 0.19830704 0.04231844 0.1819505 -0.13462254 -0.06897571 0.00903012 -0.12829135 0.09492394 0.03282237 0.0771337 -0.10049416 -0.109025516 -0.29495227 0.0028015387 -0.09521102 0.071953475 0.11305595 0.06866036 0.20856766 0.039241124 0.21281268 -0.053123396 0.44761184 0.019256035 0.08324904 -0.10110836 0.12280679 -0.070361055 -0.22442357 0.10097959 -0.12148674 0.041831657 -0.027816886 0.0704613 -0.026941162 -0.06317166 -0.07500103 0.264227 -0.04920659 0.099710084 0.17027225 -0.02580294 0.08191888 0.2827025 -0.029860131 -0.025372876 0.1051705 -0.033416606 -0.11035472 0.0569436 -0.3422283 0.029358992 0.024864744 -0.14810306 -0.022239223 -0.04630472 -0.071622476 0.065214306 0.31140226 -0.018761378 0.09001183 -0.07567379 0.10369584 -0.18304491 0.10008576 -0.2666225 -0.22888438 -0.059402008 -0.021797141 0.07634495 0.070873216 -0.20711525 -0.13283747 0.15975308 -0.09470341 -0.16937295 -0.014255472 -0.026821727 0.1078884 -0.12110651 0.19003808 -0.14129019 -0.21520616 -0.11812502 -0.26791131 0.0205527 0.019514922 0.008228941 -0.12391005 0.23371096 0.34084544 -0.09240951 0.18348004 -0.016660847 -0.023503434 -0.12547569 -0.12980704 0.0149792265 0.045531116 -0.066320844 -0.00821831 -0.027392857 -0.13018246 -0.13211174 -0.17357019 -0.0960669 0.15765513 -0.019570649 0.055329006 -0.09650804 0.08983053 -0.060975082 -0.16544056 -0.15422787 -0.0152493855 -0.25385958 -0.032804728 0.221858 0.22895038 0.021494875 0.05822491 -0.038594827 -0.12137374 -0.38838464 0.038380306 -0.20156229 0.091722175 0.12703432 0.41325673 0.042116668 -0.070387274 0.15564342 -0.08909396 -0.0787893 -0.07574728 0.085312255 -0.047233492 0.07691981 -0.08610177 0.10456531 0.0238866 0.13195217 -0.043307815 -0.029813776 -0.19214086 0.011411467 -0.26470047 -0.17786671 -0.038749754 0.22661865 0.019889235 -0.18110207 0.19288148 0.117480226 0.06629028 -0.013641551 0.16243158 -0.035517074 0.19777782 0.096356265 0.056238 -0.30044383 -0.32261193 -0.09525194 -0.2065204 0.052634735 0.22159725 -0.11921766 -0.11918526 -0.030656246 -0.031803332 0.211047 -0.059296977 0.072845 -0.11273327 0.10775893 0.10100779 -0.05000654 0.08719204 -0.067579776 -0.07882808 0.01630115 -0.35361668 -0.26735273 0.11618623 -0.19397067 0.26589534 0.15319625 -0.027227549 0.061495617 0.013940956 0.06825795 0.17116204 -0.25726858 0.13369465
http://www.semanticweb.org/owl2vec#typeOf 0.114929296 0.27570713 0.06062299 -0.026719553 0.070307575 0.17995504 0.048235 0.22225715 -0.09970742 -0.0633823 0.033336986 -0.11636487 0.07842001 0.12538856 0.11510748 -0.11912329 -0.1117584 -0.19301899 -0.05093978 -0.09153232 0.13118295 0.12753417 0.046285566 0.22006017 0.032189295 0.27345598 -0.1449963 0.4192821 0.039167862 0.07306221 -0.025668127 0.07701397 -0.049013358 -0.15210696 -0.0076626604 -0.12799391 0.07426385 -0.05112938 0.054510456 -0.030777771 -0.030511718 -0.07037163 0.29084712 -0.046634175 0.15324834 0.15510593 -0.008985657 0.10784241 0.3066977 -0.04854547 -0.052671622 -0.013508107 -0.03789545 -0.057185035 0.0592 -0.3132227 0.006125185 0.060608156 -0.13727409 -0.0043878113 -0.03864073 0.014344477 -0.015915677 0.24233635 0.015368546 0.038705464 -0.049258385 0.081045754 -0.19527385 0.084704876 -0.19990163 -0.18698218 0.021972286 -0.123345405 0.08468415 0.049675666 -0.18736395 -0.102325164 0.10907048 -0.0037834884 -0.08170746 -0.022103107 -0.0054104114 0.06626508 -0.16464598 0.14209495 -0.13235722 -0.17260228 -0.10682839 -0.21579029 -0.0007246523 0.06796729 -0.07322342 -0.08021274 0.19444454 0.28603125 -0.046976093 0.19380598 -0.11014887 -0.00967646 -0.06464864 -0.14261723 -0.028439634 0.035148405 -0.13003214 0.028992794 0.002274655 -0.045957725 -0.060286935 -0.07758555 -0.08283328 0.105960056 0.03728422 0.023099849 -0.111117914 0.08956445 -0.046149563 -0.15839583 -0.11197915 -0.0351238 -0.20971155 0.006309062 0.15477274 0.22219378 -0.010139486 -0.022086382 -0.055476733 -0.14312282 -0.33662838 0.019589318 -0.16780844 0.06941393 0.20011772 0.32663712 0.08214468 -0.04274095 0.1065396 -0.07341175 -0.011154974 -0.0059690033 0.03207076 -0.015407831 0.06026077 -0.05286681 0.057163853 0.12467379 0.14933038 -0.01805393 -0.09290933 -0.12473563 -0.042617448 -0.27885202 -0.16781147 -0.013825794 0.20518593 0.029444668 -0.15348758 0.12669402 0.03265433 0.05944595 -0.088401385 0.11720648 0.013063959 0.10994621 0.07573263 0.024869416 -0.21293303 -0.24783055 -0.07217934 -0.1411045 0.1286114 0.14818141 -0.1313279 -0.077213004 0.043496046 -0.030410048 0.193695 0.003152965 0.04623918 -0.051823888 0.088824615 0.06536759 -0.025859725 0.098985136 -0.1092331 -0.0788512 0.033397358 -0.2651966 -0.2022123 0.09260019 -0.2504145 0.2532737 0.17046633 -0.10870585 0.00069978123 -0.028089326 0.104088746 0.18537939 -0.22838894 0.10292594
zutat 0.017288523 0.37123737 0.031773623 -0.0141681135 0.031286594 0.20645593 0.055944268 0.14747128 -0.13228238 -0.027657203 -0.018476162 -0.12075719 0.0895594 0.02624017 0.10170033 -0.08617544 -0.122956425 -0.32363376 -0.0037745966 -0.047040842 0.023299983 0.12853752 0.054765493 0.205478 0.06864527 0.18415867 -0.06626149 0.47469497 0.036555413 0.05045601 -0.12757176 0.14970745 -0.10721772 -0.22613576 0.10623147 -0.1108639 0.09030521 -0.039903656 0.08652737 -0.016382627 -0.08610794 -0.06718952 0.2657657 -0.09102683 0.06166373 0.14287294 -0.041946262 0.046006046 0.3237643 -0.003749157 -0.009582233 0.10627475 0.017292308 -0.089014426 0.052314393 -0.35735145 0.040844902 0.009958767 -0.13165946 -0.03513489 -0.027657714 -0.06986306 0.054419547 0.33654052 -0.00334481 0.115771756 -0.038819615 0.13618894 -0.17123683 0.076156944 -0.23606022 -0.22131704 -0.07604864 -0.023759924 0.06469341 0.044262156 -0.20646952 -0.081463926 0.1558808 -0.08247809 -0.15379404 -0.008667352 -0.0622324 0.093661755 -0.13320227 0.21685554 -0.12745509 -0.20868483 -0.15300898 -0.3015827 0.0067528216 0.017568734 0.03246037 -0.1351336 0.23122819 0.3529857 -0.07885304 0.14731665 -0.038005084 -0.049431358 -0.12273017 -0.14103223 0.0023690558 0.03906236 -0.05809258 0.025929091 -0.013073193 -0.1262208 -0.10320213 -0.20274745 -0.09550846 0.14429344 -0.027500615 0.05275363 -0.08443634 0.085039675 -0.032925222 -0.14081225 -0.13378981 -0.04762035 -0.22958237 -0.00033307984 0.23852663 0.22460534 0.043218076 0.0631742 -0.05017286 -0.06934092 -0.38956907 0.02150304 -0.18611279 0.104584366 0.12914202 0.41255632 0.036761876 -0.06677307 0.15326728 -0.116969496 -0.0771933 -0.059574027 0.07614525 -0.037077665 0.097402535 -0.08703718 0.07537317 0.022660963 0.11632952 -0.056148473 0.024125025 -0.19493048 0.0019735284 -0.26858112 -0.1819053 -0.04322354 0.23368688 0.022084566 -0.17223898 0.16903882 0.16194926 0.07990973 -0.010869607 0.17253448 -0.026354501 0.21260041 0.14105244 0.08413258 -0.32092616 -0.31381333 -0.07221091 -0.22138277 0.039981343 0.23070924 -0.09382048 -0.09098178 -0.06241869 -0.05219898 0.20706256 -0.06716279 0.032195102 -0.09027752 0.11177765 0.100916006 -0.08172362 0.08836694 -0.06730786 -0.11164714 -0.015996216 -0.39730132 -0.29289886 0.11988072 -0.19137995 0.27342105 0.12688798 -0.041454386 0.075018905 -0.006684059 0.053198446 0.14573662 -0.24060339 0.12440326
http://ontology.daniel-motz.de/ontology#Pizza 0.108699106 0.27779856 0.05419253 -0.021393348 0.05584052 0.19040692 0.055249132 0.21915784 -0.10701793 -0.06401169 0.0225008 -0.11253111 0.07644973 0.10642957 0.104952626 -0.11575366 -0.10664519 -0.1936711 -0.0510297 -0.095802724 0.11491033 0.12312798 0.055195034 0.21871033 0.037641082 0.26217058 -0.1391578 0.418628 0.03830959 0.07218341 -0.03530551 0.07635441 -0.05251901 -0.15840866 0.003957137 -0.120204195 0.0804221 -0.0583764 0.05794617 -0.026226941 -0.03466799 -0.06707749 0.28361306 -0.05208429 0.1446085 0.15987241 -0.019032769 0.1055145 0.30008104 -0.057334274 -0.0487026 -0.00409283 -0.032259192 -0.057477772 0.05135025 -0.30618358 0.013250737 0.061221376 -0.13777883 -0.004557451 -0.03746532 0.005839212 -0.0071134875 0.25552318 0.016732598 0.039028604 -0.044778682 0.07975775 -0.20336631 0.07936751 -0.2120514 -0.19967623 0.015192245 -0.10966799 0.07211768 0.04437138 -0.18919058 -0.10551953 0.11103289 -0.009723074 -0.08410669 -0.01671701 -0.00842409 0.063636206 -0.16325743 0.14747062 -0.12786955 -0.17137264 -0.104433954 -0.23032948 -0.0076236804 0.05672944 -0.06498878 -0.09052028 0.20468082 0.290827 -0.051057186 0.19177268 -0.10555855 -0.00013465197 -0.066618174 -0.14164853 -0.0132115 0.029707082 -0.116074614 0.018238578 0.0013971635 -0.05540386 -0.06298397 -0.095836826 -0.0866457 0.10439203 0.02261466 0.016292151 -0.11716183 0.08591944 -0.042969614 -0.15630607 -0.11185397 -0.032383062 -0.21427138 -0.010635135 0.15293019 0.22296046 -0.0011907847 -0.0028686067 -0.051544737 -0.13018435 -0.33849758 0.02252946 -0.17510857 0.07719786 0.1878237 0.33748564 0.08132101 -0.050010443 0.11272964 -0.07638593 -0.013582285 -0.016453614 0.03620523 -0.018659014 0.06890953 -0.05081818 0.061137132 0.11702016 0.1363016 -0.018565046 -0.07683703 -0.123582646 -0.041747414 -0.27186772 -0.15805086 -0.022245768 0.20553447 0.03450196 -0.16311504 0.135235 0.044852927 0.05526781 -0.07716729 0.12372408 0.01059362 0.11721004 0.08435098 0.023313768 -0.22665775 -0.2578028 -0.06395761 -0.14095041 0.11609281 0.15605056 -0.12648337 -0.08425316 0.026129879 -0.030046865 0.19469954 -0.005794674 0.049690664 -0.06188565 0.08976643 0.06395824 -0.019215655 0.09835552 -0.10706349 -0.0799079 0.034156945 -0.2765017 -0.20788762 0.0923881 -0.24515621 0.25183573 0.15668003 -0.10840331 0.010695951 -0.020297863 0.08770278 0.18651506 -0.22820316 0.11163663
http://ontology.daniel-motz.de/ontology#istZutatVon 0.11578899 0.27337807 0.06165327 -0.020209096 0.062893756 0.18234949 0.05169325 0.22490977 -0.10745935 -0.062522516 0.024250757 -0.10870255 0.07243731 0.13168381 0.108173475 -0.12575464 -0.11079342 -0.18697524 -0.04332836 -0.08434064 0.13577735 0.13106017 0.054644007 0.22143985 0.0265296 0.28024125 -0.1489341 0.4279546 0.03041816 0.07298536 -0.026672518 0.081202164 -0.048714977 -0.14413641 0.0013544125 -0.13140737 0.07472846 -0.054853402 0.048723556 -0.04271566 -0.030405097 -0.073040426 0.29418173 -0.04652433 0.15060654 0.16068475 -0.0015755505 0.111032255 0.29891697 -0.049129333 -0.057053942 -0.017817779 -0.045126326 -0.055417784 0.057290286 -0.3193132 0.0031170603 0.059086237 -0.13207392 0.0048093377 -0.038613755 0.0109220715 -0.0071563357 0.24952546 0.013649766 0.028369319 -0.05199512 0.07097778 -0.19113488 0.07720785 -0.20306508 -0.19258882 0.021561556 -0.112695836 0.08733077 0.04844731 -0.1838711 -0.09035409 0.09899495 -0.0013529721 -0.08081964 -0.018445237 -0.013735234 0.06477609 -0.15727688 0.13320209 -0.12877284 -0.17772768 -0.11488487 -0.21638812 -0.009984808 0.06458748 -0.07772697 -0.09182397 0.20265113 0.28663093 -0.05060067 0.19738983 -0.10549191 -0.010851528 -0.062543176 -0.14505686 -0.022330381 0.04539901 -0.12541284 0.032162733 0.007713179 -0.05644393 -0.061119054 -0.07482303 -0.08458529 0.09923012 0.03825224 0.023619978 -0.11144936 0.08778707 -0.03885439 -0.1587354 -0.104729116 -0.037401445 -0.20817187 -0.0032797689 0.14809175 0.23445767 -0.00690682 -0.022790367 -0.0571704 -0.13977118 -0.33647862 0.014567729 -0.16866551 0.075615786 0.1929352 0.32597622 0.0869891 -0.036196575 0.10358329 -0.07859348 -0.0051173265 -0.010669407 0.028157597 -0.01855409 0.047171988 -0.048134875 0.048276648 0.13402136 0.15509602 -0.012946727 -0.08321119 -0.1232752 -0.05740159 -0.27392173 -0.16274215 -0.015050512 0.20082082 0.024524268 -0.15644446 0.11741993 0.036013335 0.05257729 -0.08589414 0.11027413 0.0043658214 0.10321836 0.08086486 0.014103021 -0.21682006 -0.24562004 -0.059779167 -0.13806865 0.13107915 0.13969879 -0.12723035 -0.0797163 0.041675076 -0.02988886 0.19936897 0.0131879365 0.045965623 -0.05483591 0.09224784 0.06103813 -0.027470458 0.10416098 -0.112185955 -0.08419298 0.03888646 -0.27205554 -0.19581133 0.101666205 -0.24701649 0.24900389 0.17226744 -0.111444816 -0.0005123244 -0.027645618 0.09781277 0.18774824 -0.23211671 0.100264296
http://ontology.daniel-motz.de/ontology#enthaeltZutat 0.119711325 0.27097785 0.05397059 -0.027161796 0.05914916 0.17815305 0.049820192 0.23040181 -0.11387723 -0.06982532 0.01966521 -0.11330017 0.0732644 0.12970151 0.11296672 -0.12173951 -0.109172426 -0.1893063 -0.045472592 -0.08859984 0.1412358 0.13831796 0.051846713 0.22465654 0.025550583 0.28344843 -0.14388813 0.43391666 0.03160926 0.078832105 -0.029638374 0.075634345 -0.057335865 -0.14848413 -0.002750405 -0.136108 0.07947129 -0.052821014 0.0495542 -0.03243714 -0.02899575 -0.07518347 0.29756576 -0.04934977 0.14710298 0.15631962 -0.0045099743 0.11669485 0.30665648 -0.060414303 -0.058045004 -0.02102531 -0.04347755 -0.06250459 0.057618983 -0.32096985 0.011849819 0.06208347 -0.13731702 0.0019835823 -0.035508286 0.007775121 -0.015291634 0.2443917 0.020558016 0.02766538 -0.04754238 0.07127171 -0.19838364 0.07863537 -0.20226915 -0.1897374 0.016954988 -0.12199821 0.088549234 0.044971272 -0.1889349 -0.09888476 0.10283732 -0.0048675877 -0.08798531 -0.027834175 -0.014383906 0.059152823 -0.160839 0.14356361 -0.13557391 -0.18336876 -0.113934636 -0.21988861 -0.010454821 0.06265867 -0.08447039 -0.08774162 0.20206363 0.2913314 -0.04939598 0.19996563 -0.11003904 -0.0001277723 -0.064545825 -0.1491765 -0.027221117 0.03893929 -0.12405641 0.025706258 0.012336865 -0.055207092 -0.057923924 -0.07710691 -0.08632838 0.099910416 0.03865761 0.01662786 -0.119360045 0.094524086 -0.043342736 -0.16733307 -0.10690701 -0.036375172 -0.20402268 -0.0004914853 0.14406294 0.23047794 -0.009359098 -0.024306469 -0.06019043 -0.14154296 -0.34765336 0.020601543 -0.17640503 0.06961462 0.20036367 0.32506493 0.09119592 -0.04610005 0.100292 -0.08115165 -0.006409075 -0.009229903 0.027397731 -0.019141631 0.050396193 -0.049263984 0.051805343 0.13264373 0.15348049 -0.011311892 -0.088210925 -0.12875587 -0.054173905 -0.27336514 -0.1635073 -0.018904854 0.20577277 0.024789229 -0.15291634 0.12516323 0.043743115 0.059348553 -0.08704172 0.11520212 0.005342446 0.110057965 0.08239576 0.018639121 -0.21154052 -0.2495042 -0.06216 -0.1366378 0.12324334 0.14288485 -0.12665945 -0.07518566 0.035955977 -0.03388948 0.19958794 0.012322685 0.04391041 -0.053182926 0.08639642 0.058052596 -0.024362216 0.100290805 -0.11360245 -0.0815178 0.043541137 -0.27893186 -0.19928761 0.09520613 -0.24766743 0.2521348 0.1672901 -0.12288829 0.005061996 -0.032011252 0.09745569 0.18993124 -0.22837442 0.10790637
enthaelt 0.05155736 0.34856197 0.04220438 -0.028063586 0.036216166 0.20155719 0.046404224 0.18475822 -0.13583013 -0.053630617 0.006810006 -0.1318308 0.08600967 0.063481145 0.09786727 -0.11474964 -0.11185838 -0.27823302 -0.023785304 -0.06537585 0.06351817 0.12340676 0.067256466 0.2098309 0.056515206 0.23495652 -0.08986885 0.46620739 0.035039846 0.066977754 -0.093592376 0.13536106 -0.09589682 -0.19984508 0.0738945 -0.12486584 0.07659013 -0.045730956 0.07306707 -0.027326029 -0.06428347 -0.07196469 0.27876315 -0.06791451 0.0953359 0.16232945 -0.030335875 0.07997287 0.32255644 -0.018900542 -0.040149722 0.06246042 -0.01169166 -0.08256234 0.05392114 -0.35346022 0.037460722 0.03575872 -0.13887897 -0.023492819 -0.037377883 -0.05196169 0.03403725 0.3148225 0.000582684 0.08529753 -0.046360154 0.11066012 -0.1873816 0.09497079 -0.23800613 -0.21466543 -0.050732676 -0.044857044 0.073095836 0.053682167 -0.21339636 -0.09707007 0.15081389 -0.06400904 -0.12740585 -0.025063027 -0.05283409 0.09473798 -0.147557 0.19189514 -0.12708922 -0.20596032 -0.13005963 -0.286319 0.0073344377 0.0359974 -0.0016678941 -0.12597187 0.22317848 0.34919912 -0.072280906 0.1688365 -0.05050055 -0.020803502 -0.1032321 -0.14096302 0.0021935068 0.028281212 -0.06827302 0.022841908 -0.004925596 -0.10326832 -0.10257582 -0.15932932 -0.10228559 0.14167576 -0.0062591154 0.044138405 -0.09419122 0.090750866 -0.040387534 -0.15526304 -0.13442479 -0.042003483 -0.24020486 -0.003125493 0.21703982 0.24014995 0.03378467 0.0354059 -0.047376126 -0.0952386 -0.38732788 0.017676387 -0.1901065 0.10068469 0.15462121 0.40290612 0.059278406 -0.06353136 0.14498396 -0.1066354 -0.067349635 -0.05214306 0.065802954 -0.031705324 0.0871054 -0.08382205 0.071787104 0.06531796 0.12599428 -0.035645615 -0.01628789 -0.17294267 -0.0016745029 -0.26592046 -0.17608677 -0.03262941 0.23200744 0.022224115 -0.17835765 0.16418518 0.12143195 0.06935899 -0.028578287 0.16029485 -0.032013968 0.18976374 0.11777399 0.07301244 -0.2929568 -0.302266 -0.084898286 -0.19873425 0.061828554 0.20890957 -0.10998237 -0.091507316 -0.024343338 -0.044533048 0.21123095 -0.05065509 0.043460496 -0.0765837 0.09983579 0.08022421 -0.06586996 0.10049128 -0.08278472 -0.10214781 -0.00084012246 -0.36372694 -0.27223998 0.118516244 -0.21136495 0.27383068 0.14149283 -0.062413234 0.057147585 -0.0142088495 0.06996898 0.15831117 -0.24931827 0.1250131
ist 0.016856255 0.3703656 0.040058114 -0.022353161 0.028791111 0.19608602 0.04242278 0.15604278 -0.13717766 -0.032482862 -0.009844812 -0.1267361 0.08796304 0.034408033 0.099011265 -0.106107496 -0.120323114 -0.31269228 -0.016307814 -0.059572298 0.040041316 0.12164902 0.058601104 0.21063195 0.06091797 0.19949152 -0.07779346 0.4726289 0.039901596 0.073810846 -0.124466434 0.15089127 -0.09898031 -0.22914504 0.09385776 -0.12090015 0.08280827 -0.036662463 0.07983019 -0.023539275 -0.0762989 -0.08064691 0.26447743 -0.07822054 0.07455731 0.15487005 -0.028089214 0.05797655 0.30716896 -0.012590582 -0.026977664 0.09554909 0.0013877897 -0.09958743 0.04803445 -0.34894776 0.035886448 0.015316442 -0.13856843 -0.030663902 -0.03283062 -0.08105827 0.069725215 0.32220626 -0.004050581 0.10015023 -0.058472563 0.1242104 -0.1745805 0.093682215 -0.25359064 -0.22448936 -0.06535136 -0.004706645 0.06987393 0.03987257 -0.21024838 -0.08228458 0.15233243 -0.094807714 -0.15248531 -0.02049364 -0.061326966 0.10434494 -0.13627115 0.19869143 -0.11910481 -0.20790115 -0.14931513 -0.29030403 0.0086742975 0.010012499 0.029601686 -0.12832431 0.22041154 0.35000265 -0.079093054 0.16288926 -0.021968583 -0.046114344 -0.11472934 -0.13095349 0.011760446 0.035265133 -0.069463834 0.013621781 -0.015089295 -0.12567429 -0.11542975 -0.17781682 -0.10536123 0.14696777 -0.033293284 0.057427395 -0.09758513 0.082991876 -0.042496797 -0.15022433 -0.1358041 -0.040879153 -0.23690172 -0.0013884814 0.23646976 0.22736199 0.042812843 0.04299836 -0.05796483 -0.07981721 -0.39313 0.025119927 -0.19525594 0.101100996 0.14232327 0.41181067 0.03695321 -0.07408349 0.15227582 -0.09813041 -0.06717429 -0.060971472 0.072136216 -0.04476979 0.09453888 -0.091360725 0.08334403 0.021156136 0.11276175 -0.03585863 0.00011335993 -0.19545399 0.00794134 -0.26728565 -0.19076626 -0.030093608 0.23208067 0.017156683 -0.17017947 0.16917872 0.15314698 0.073846415 0.004403545 0.18095677 -0.041705128 0.20957166 0.13052087 0.08455063 -0.31510708 -0.31430453 -0.080415525 -0.21735281 0.055453725 0.2358403 -0.0976181 -0.09637083 -0.052354705 -0.05983286 0.21488816 -0.061535005 0.028949542 -0.08632985 0.11007605 0.09892034 -0.091032654 0.0918513 -0.06745128 -0.10341337 -0.008690503 -0.39062187 -0.29084787 0.12528405 -0.1957652 0.26898766 0.13733603 -0.034420446 0.072398804 -0.019446895 0.06002372 0.16040206 -0.2454164 0.1173334
von 0.036844496 0.36630628 0.039435916 -0.0076192184 0.044668537 0.19571163 0.049510438 0.15760085 -0.13311124 -0.036124773 -0.007478935 -0.12947872 0.087328486 0.044844586 0.09722332 -0.10040157 -0.11736594 -0.3100955 -0.0015962548 -0.05491215 0.03869777 0.124948375 0.066304065 0.2032459 0.05304768 0.20094267 -0.06955061 0.47449005 0.03157172 0.055410497 -0.11676041 0.1458692 -0.10341354 -0.20946494 0.10533843 -0.1069588 0.078549795 -0.044118825 0.08588298 -0.029228272 -0.083610006 -0.065886855 0.26748857 -0.07593633 0.07480617 0.15693882 -0.028023042 0.0591138 0.31590113 -0.007120885 -0.027380878 0.09392976 -0.005061598 -0.081591435 0.056324877 -0.36070114 0.040223792 0.022600994 -0.14102288 -0.036204565 -0.028128006 -0.07404036 0.055703655 0.32932952 -0.0019458048 0.107299455 -0.043205228 0.12608927 -0.1667472 0.083015956 -0.24864042 -0.21784717 -0.067109145 -0.02151389 0.07809798 0.048677824 -0.20899794 -0.09273418 0.14693269 -0.08618456 -0.14328232 -0.023022326 -0.06048055 0.09903173 -0.14137432 0.20764923 -0.12447043 -0.20534326 -0.14451617 -0.29738376 0.016901936 0.016868 0.029308403 -0.13969947 0.22638115 0.3522651 -0.07045395 0.16676189 -0.02069384 -0.053815756 -0.11295681 -0.1287163 -0.003523385 0.026795577 -0.055981543 0.010637673 -0.0074399803 -0.121434554 -0.112175 -0.18775073 -0.10490019 0.14669114 -0.018328505 0.06200934 -0.090156995 0.08483381 -0.031483345 -0.15330707 -0.13297898 -0.040556952 -0.23201117 0.0034222766 0.23954247 0.23144357 0.04771193 0.04731656 -0.05447881 -0.07514598 -0.4015087 0.017590674 -0.18856733 0.10971014 0.13731687 0.40755132 0.043033324 -0.06758425 0.16177283 -0.11138743 -0.07305303 -0.06171971 0.078892924 -0.034621354 0.09542961 -0.07858673 0.080990456 0.030576251 0.116874255 -0.031856794 0.012103699 -0.19029506 0.002225829 -0.27063644 -0.17585552 -0.031110497 0.23013 0.020659529 -0.1767168 0.17635466 0.1488247 0.07754647 -0.006300573 0.17026529 -0.03987543 0.21529137 0.13237396 0.086854726 -0.3163315 -0.30742526 -0.07237148 -0.20416474 0.04203583 0.229511 -0.09381609 -0.09308998 -0.048993558 -0.04314005 0.19915375 -0.059811916 0.04026316 -0.097289756 0.107289545 0.09669232 -0.075808965 0.09389615 -0.067106344 -0.10923461 -0.016775519 -0.3825393 -0.2868326 0.117153175 -0.19521712 0.2647144 0.13871296 -0.040588956 0.07208675 -0.009923458 0.057353023 0.15871781 -0.24108925 0.11265863
pizzeria 0.13961019 0.2164868 -0.048471734 -0.10511421 0.02116558 0.24216661 0.06446632 0.32957554 -0.22949316 -0.08034454 0.084893584 -0.093108535 0.14318188 -0.104618385 -0.045905612 -0.14158098 0.0004918665 -0.13604541 -0.036835544 -0.3399851 0.14893481 0.19163747 0.06767766 0.19627774 0.05028931 0.26661918 0.021623416 0.43235028 -0.00133922 0.1486136 0.022144033 0.022063244 -0.06264461 -0.222339 0.10739102 -0.14574552 -0.03558055 -0.1828506 0.112476096 0.11756029 -0.089409746 0.068607904 0.29135397 -0.12146222 0.22321866 0.31105763 -0.17048931 0.09429033 0.23203519 -0.060919844 -0.10609659 0.11856122 0.03381376 -0.14200075 0.05690824 -0.20367399 0.1746791 0.10841038 -0.25892898 0.04309603 -0.15254505 0.06897196 -0.091802604 0.3225751 -0.045837145 0.0066068713 -0.13473535 0.032738708 -0.2672681 0.11755944 -0.35025725 -0.2427018 -0.06018086 -0.097196236 -0.036240466 0.07437063 -0.20363426 -0.26326394 0.16332623 -0.05317877 -0.13608055 -0.10243334 -0.007911778 0.12962316 -0.21046567 0.21035495 -0.05424725 -0.22892228 -0.05500272 -0.17966282 -0.052099396 0.03503479 -0.10076956 -0.06592237 0.32351887 0.4515407 -0.17566371 0.15958732 -0.07338849 0.12760627 -0.08002848 -0.15144612 0.08071148 -0.0059710303 0.13586628 -0.18034334 -0.15355234 -0.21631756 -0.13101391 -0.116816595 -0.09995979 0.1567961 -0.06490532 -0.096787535 -0.033399202 0.010650626 -0.1972205 -0.13712347 -0.1951957 0.060392242 -0.29016224 -0.09589554 0.14757746 0.24515761 0.09387765 0.08929028 -0.0027040374 -0.17687935 -0.49629435 0.05077184 -0.34216604 0.15494503 0.028429441 0.50139475 0.0006676352 -0.10973346 0.17154707 -0.10060036 -0.1281308 -0.107207984 0.06071894 -0.072536655 0.14755607 -0.105099075 0.17270786 0.06564664 -0.02700078 -0.0566873 -0.12146102 -0.14595799 0.09136118 -0.20883128 -0.06565702 -0.05191746 0.201264 0.11718435 -0.15881722 0.18268853 0.011501056 0.07079979 -0.15136507 0.17562965 0.018918607 0.21163942 0.09838325 0.015907982 -0.18477479 -0.37601483 -0.1475511 -0.23145862 -0.058512527 0.24895209 -0.1423124 -0.0150462715 0.05907752 0.1876945 0.2991456 -0.1505513 0.15993166 -0.06913881 0.112168126 -0.09369252 0.086810365 0.04760892 -0.14699312 0.09160586 0.08627113 -0.31293613 -0.24315883 0.09782427 -0.18864791 0.31049767 0.09230934 -0.09631836 0.09907313 0.09181019 -0.020118605 0.06941749 -0.37027588 0.2903925
http://ontology.daniel-motz.de/ontology#Zutat 0.10133199 0.27841836 0.057025872 -0.02524871 0.06140833 0.19237684 0.0481222 0.22354363 -0.11212592 -0.067049816 0.022758385 -0.12398423 0.08470713 0.109950885 0.10621148 -0.12053759 -0.10272173 -0.20199814 -0.053010415 -0.09061438 0.11418282 0.13126945 0.045656595 0.22191636 0.029939268 0.27341828 -0.13863552 0.42452234 0.038538795 0.06589477 -0.038181473 0.08589624 -0.06353576 -0.15972835 0.010463238 -0.12320409 0.07897235 -0.0530316 0.06287937 -0.040546507 -0.036141865 -0.081338726 0.27997425 -0.05623052 0.14465268 0.16821082 -0.012802926 0.10828025 0.30214053 -0.062450647 -0.04316373 0.005860973 -0.040600736 -0.06326145 0.061618924 -0.31696588 0.013876055 0.06733047 -0.13740282 -0.008587896 -0.042600553 0.00048726 -0.0021275585 0.25539345 0.015628397 0.036273096 -0.05429722 0.074767895 -0.20825571 0.083563544 -0.20774598 -0.20246941 0.012796932 -0.118966915 0.064207904 0.044815287 -0.19336745 -0.11167681 0.10491224 -0.021898028 -0.09006388 -0.017043259 -0.020801207 0.059819076 -0.16685897 0.14421493 -0.1345688 -0.18480381 -0.107513785 -0.22968045 -0.010524585 0.053646535 -0.06689655 -0.084990084 0.20467669 0.291429 -0.04754666 0.19866034 -0.10594135 0.004119156 -0.063787036 -0.1456644 -0.012829538 0.025967697 -0.12053392 0.014956508 0.0036362864 -0.06128393 -0.070622 -0.09706672 -0.0892645 0.11477494 0.03221217 0.02425387 -0.12278092 0.08836665 -0.0443514 -0.15683444 -0.12162326 -0.02978126 -0.20986933 -0.010918726 0.15199041 0.22600429 -0.011512014 -0.01093092 -0.057882246 -0.12731913 -0.348779 0.020067789 -0.17207322 0.08089897 0.19483253 0.33219433 0.086500295 -0.041319225 0.10909739 -0.07527109 -0.016427703 -0.01649175 0.028969249 -0.014468549 0.07002984 -0.053759504 0.06895155 0.11500049 0.14555909 -0.018800287 -0.08304081 -0.13207732 -0.037949957 -0.27701762 -0.16515604 -0.030484071 0.21530572 0.023683637 -0.15701562 0.13580625 0.041395962 0.06291178 -0.07805518 0.12464294 0.010284367 0.11324369 0.08342791 0.024878275 -0.22030531 -0.25517157 -0.067626394 -0.13853085 0.120135985 0.16413341 -0.1266146 -0.085638635 0.03350931 -0.030517332 0.19683325 0.0011613462 0.06184783 -0.054780357 0.08266165 0.058950983 -0.024995362 0.10130884 -0.1124561 -0.07780271 0.037103128 -0.27837634 -0.20482315 0.09675807 -0.25437713 0.25172693 0.16237803 -0.116637506 0.0065509644 -0.029565578 0.08755436 0.18459214 -0.22766909 0.10937575
Type 0.114962354 0.28175333 0.058489263 -0.024159605 0.0687914 0.19019751 0.048816375 0.21714719 -0.11183787 -0.059019543 0.036802515 -0.11046063 0.07620004 0.112440616 0.10149682 -0.11866772 -0.09962908 -0.2127854 -0.04246223 -0.08494779 0.12805757 0.1296676 0.045839828 0.2297975 0.03927539 0.2776759 -0.12878914 0.4219301 0.041825727 0.06787742 -0.025417792 0.09261911 -0.04602557 -0.15884414 0.0015620259 -0.1391217 0.07197159 -0.04907465 0.049663536 -0.026461221 -0.040262077 -0.0740496 0.28199944 -0.052021414 0.14519995 0.1555343 -0.01449954 0.10869743 0.31019053 -0.058273867 -0.047713216 0.0053883214 -0.023386285 -0.06929192 0.06768236 -0.3195622 0.0020915493 0.05645145 -0.1374365 -0.010824786 -0.038627747 0.011795089 -0.00807367 0.25746185 0.004103324 0.04174184 -0.05836323 0.084180064 -0.2104592 0.09866125 -0.21107846 -0.19038494 0.018527998 -0.11667499 0.08396086 0.047003113 -0.18530415 -0.098292336 0.11820166 -0.017358365 -0.09702845 -0.029480955 -0.01860713 0.07428787 -0.16260625 0.14742883 -0.13454357 -0.17943917 -0.106657736 -0.2199006 -0.004952194 0.061130513 -0.061121225 -0.09208965 0.21494254 0.29984623 -0.060886674 0.19400127 -0.10281286 -0.0135147935 -0.06512964 -0.13760942 -0.022182869 0.042395234 -0.12510888 0.01834964 0.005159325 -0.06228976 -0.06166078 -0.08274658 -0.09722592 0.10813329 0.035645884 0.02250372 -0.117346145 0.082708575 -0.05064163 -0.15673985 -0.11499666 -0.040472053 -0.21450435 0.0008616966 0.15581413 0.2294996 0.00015061155 -0.007843486 -0.062810235 -0.140695 -0.3503524 0.018420203 -0.17411171 0.07507982 0.19558609 0.33645326 0.07932695 -0.056582958 0.112894475 -0.07871479 -0.024892617 -0.020127254 0.026777022 -0.030695925 0.063624956 -0.04848494 0.058217324 0.11660839 0.13843265 -0.0112912385 -0.08836687 -0.11911575 -0.042612214 -0.283978 -0.16069251 -0.020782294 0.21371719 0.03987369 -0.15344495 0.1344191 0.044268463 0.058245532 -0.08634113 0.1252114 0.0033213105 0.111830994 0.07775182 0.028398631 -0.23038243 -0.25080353 -0.07233463 -0.1425715 0.11915689 0.1482919 -0.13217793 -0.07848966 0.032061495 -0.03590229 0.2029894 0.003843917 0.05316531 -0.06521782 0.08419614 0.07041442 -0.019690275 0.10888734 -0.10236245 -0.084635995 0.032345276 -0.28986013 -0.22415613 0.10607607 -0.23557097 0.25390428 0.16698126 -0.10437336 0.003556786 -0.016571008 0.09798963 0.18152478 -0.23529583 0.11074587
type 0.09471906 0.30217546 0.039929356 -0.049439844 0.04208579 0.21423231 0.0607815 0.22054043 -0.13801561 -0.06852732 0.025401024 -0.12596223 0.08586232 0.060104292 0.07597738 -0.120037414 -0.08761018 -0.21318087 -0.03081891 -0.13096352 0.09764445 0.15089625 0.058242224 0.22384429 0.05164664 0.25991443 -0.08807285 0.45499423 0.032967664 0.080149464 -0.04523205 0.111600235 -0.067516476 -0.19332848 0.05262771 -0.12909433 0.06467124 -0.06682581 0.07703304 0.008114071 -0.057804547 -0.041525904 0.28791466 -0.070274495 0.13560782 0.19156922 -0.045016963 0.09115564 0.29646337 -0.04445482 -0.05721412 0.05507776 -0.0152920075 -0.10064539 0.06124048 -0.31870195 0.052016385 0.061314397 -0.16389458 -0.002700261 -0.062197343 -0.009850667 0.010661038 0.30036172 -0.0077374065 0.04951411 -0.07146951 0.07821164 -0.20403267 0.09133893 -0.25713444 -0.20363615 -0.023308929 -0.08284389 0.051927872 0.05659786 -0.19846901 -0.12337805 0.1567048 -0.04055895 -0.13335617 -0.0358945 -0.022697046 0.07987039 -0.1674805 0.17909473 -0.11249571 -0.21508203 -0.11339812 -0.25433618 -0.013578457 0.052115504 -0.047714382 -0.101134814 0.23637208 0.35650226 -0.083588324 0.18111624 -0.063371845 0.010707923 -0.08719732 -0.13456161 0.015170828 0.032166675 -0.051896986 -0.009620303 -0.026481997 -0.10018374 -0.097680405 -0.12673858 -0.10667394 0.13269766 -0.007934333 0.0030491485 -0.08554674 0.07825201 -0.07292066 -0.14865702 -0.13608693 -0.028613513 -0.23946469 -0.018077863 0.17855625 0.23489511 0.024553977 0.028865065 -0.04017735 -0.12940915 -0.39921492 0.033325214 -0.22184956 0.09991163 0.13969383 0.39877892 0.060241554 -0.079035066 0.14434354 -0.08826841 -0.05025405 -0.05607822 0.05598722 -0.025425874 0.09894674 -0.08570831 0.09216086 0.07186715 0.10324695 -0.037868433 -0.055776708 -0.15382934 -0.010100726 -0.26614088 -0.14502534 -0.03984129 0.21764049 0.050843846 -0.16985708 0.15938553 0.07016916 0.06486269 -0.06534468 0.14993316 -0.0019296776 0.16615675 0.10380147 0.042733602 -0.26067907 -0.30665657 -0.08563286 -0.18641779 0.06668207 0.18798272 -0.11867891 -0.06853265 0.0015857944 -0.000818008 0.2177504 -0.04849598 0.0651482 -0.07348859 0.11267817 0.033636507 -0.018220296 0.093739524 -0.09629991 -0.056219716 0.031666473 -0.32162583 -0.24085279 0.11135832 -0.22246887 0.28401002 0.13730472 -0.07917806 0.049953703 0.010120272 0.05596667 0.15451688 -0.2717248 0.15905106
cheese 0.05773294 0.34840062 0.042905558 -0.00817339 0.047621656 0.19720347 0.053863812 0.19168973 -0.13413404 -0.048059184 0.00666544 -0.12589304 0.0829554 0.054077514 0.090652764 -0.10753986 -0.10553874 -0.27892005 -0.008675691 -0.08344213 0.07215069 0.114531055 0.065153696 0.20436573 0.043318044 0.22714382 -0.08710483 0.45517623 0.028329486 0.07518134 -0.08737658 0.11551219 -0.074814744 -0.21157344 0.07259889 -0.11141155 0.06339493 -0.051769953 0.07397569 -0.020734502 -0.06443696 -0.0718549 0.2683697 -0.063388616 0.101672255 0.1732165 -0.021858824 0.081290185 0.2948648 -0.020930888 -0.027321868 0.07325962 -0.014579535 -0.097235635 0.059727803 -0.33962518 0.04037738 0.030754853 -0.150727 -0.01892779 -0.052551493 -0.051977854 0.038761523 0.30131602 -0.0013578031 0.08023844 -0.0531803 0.109150805 -0.1867567 0.083569266 -0.2544822 -0.21985438 -0.050563157 -0.03498441 0.07122327 0.05787937 -0.21360414 -0.10854705 0.1420247 -0.07321951 -0.14390133 -0.016332584 -0.039581083 0.08531139 -0.1461517 0.18615016 -0.13363926 -0.2115561 -0.13142896 -0.26481795 0.005171278 0.024638947 -0.0066716783 -0.124920435 0.23630503 0.3452592 -0.08562976 0.17174046 -0.048506316 -0.023328507 -0.11084717 -0.14127797 -0.0024460524 0.03766915 -0.067440696 0.0017074469 -0.01079605 -0.11761238 -0.10062322 -0.15975676 -0.10114732 0.14301981 -0.019428862 0.04859599 -0.102168255 0.0872865 -0.057553746 -0.15614194 -0.14715478 -0.02316398 -0.23282294 -0.007887782 0.21059373 0.2333404 0.02928165 0.045398656 -0.04839867 -0.100123346 -0.38773212 0.028843487 -0.20091005 0.09171755 0.15094024 0.39246178 0.053653587 -0.07396817 0.14744112 -0.088790596 -0.066784665 -0.055224534 0.07035452 -0.03939651 0.08311125 -0.075720765 0.08843577 0.052537356 0.12618119 -0.030167904 -0.019750122 -0.18628672 -0.002339357 -0.2757281 -0.17841081 -0.028361777 0.21211417 0.032857604 -0.17105065 0.17717499 0.11392318 0.0682394 -0.036191095 0.16325147 -0.027352544 0.18150686 0.09460932 0.057277985 -0.2821426 -0.31385633 -0.08080313 -0.19581611 0.05941665 0.21799158 -0.11553803 -0.09590951 -0.011411714 -0.026385397 0.21139549 -0.054706067 0.0541489 -0.09517582 0.09808699 0.07733082 -0.047785155 0.08239163 -0.07901005 -0.08098073 0.016134089 -0.3497837 -0.2701475 0.11822484 -0.2133014 0.2679843 0.15371454 -0.056578297 0.05985095 -0.010209361 0.06732921 0.16996776 -0.24494156 0.12722017
price 0.0748896 0.35439909 0.072363295 -0.020639915 0.07543886 0.19673495 0.062481686 0.23727298 -0.1397201 -0.10715358 0.0469842 -0.15201372 0.07779901 0.12077584 0.100653015 -0.090229265 -0.13612533 -0.25896573 0.022274554 -0.107658386 0.084412925 0.078310676 0.07714163 0.23787561 0.042490073 0.27854756 -0.110945605 0.4121017 0.05297379 0.08672114 -0.057059634 0.0873504 -0.04397235 -0.21155505 0.06726366 -0.13349095 0.03189289 0.010233224 0.077552415 -0.06508031 -0.055301167 -0.11253002 0.31769773 -0.0065926695 0.13258445 0.15303434 0.0151635455 0.110921755 0.27581736 -0.058230046 -0.03329332 0.07418623 -0.0791887 -0.084456176 0.049118068 -0.37265834 -0.012510102 0.016352573 -0.14984117 0.0007940015 -0.04724327 -0.05957987 0.08660676 0.3030326 -0.008673297 0.07430637 -0.06466226 0.09140755 -0.19666989 0.11401932 -0.25565246 -0.22669324 0.009587062 -0.071796775 0.059468 0.08483018 -0.22774152 -0.1446649 0.17729415 -0.051433474 -0.15711807 0.0051014125 0.029623497 0.05012392 -0.112374716 0.16085151 -0.16748162 -0.22558488 -0.103449136 -0.2791421 -0.0039118016 0.044930637 -0.054055247 -0.14557032 0.22966197 0.30950993 -0.09428938 0.23662911 -0.03841925 -0.0063379267 -0.096254066 -0.1620212 -0.0126033705 0.035921212 -0.13189656 0.008188875 -0.023014348 -0.07738954 -0.13167359 -0.105509594 -0.11094466 0.14546634 0.028006723 0.050332684 -0.12466365 0.13912253 -0.07007821 -0.1691718 -0.1758259 -0.054737486 -0.25044775 -0.049384322 0.22553743 0.22103164 -0.025560511 0.048238505 -0.04313236 -0.1736102 -0.34641337 0.044592507 -0.18796071 0.06667394 0.17848463 0.38093913 0.0711837 -0.06961581 0.1291195 -0.064030565 -0.041893687 -0.041487347 0.076006554 -0.025608018 0.057044704 -0.060693085 0.07659167 0.06867449 0.15083653 -0.062851004 -0.06544805 -0.17522354 -0.025237624 -0.25955784 -0.20063134 -0.04125675 0.2253525 -0.005401406 -0.18932195 0.18517661 0.054431997 0.030432114 -0.0301977 0.1364927 -0.040911507 0.16298622 0.03584253 0.03405598 -0.27903208 -0.30732936 -0.110396236 -0.18151692 0.11878414 0.1476136 -0.1577828 -0.14837335 0.0077162264 -0.037043903 0.17503501 -0.010784819 0.096024044 -0.08509223 0.12958904 0.10418271 -0.0013957588 0.124713205 -0.064716026 -0.105332494 0.06011778 -0.29371506 -0.2578266 0.117242225 -0.23571712 0.23655537 0.18986398 -0.080496356 0.035437904 0.010010632 0.10782358 0.20856841 -0.28486726 0.11912776
http://ontology.daniel-motz.de/ontology#Tomatensauce 0.100231305 0.28381026 0.039080016 -0.021088729 0.05672675 0.17789638 0.047923822 0.2148635 -0.11256197 -0.061996087 0.0166526 -0.1073926 0.0746078 0.088552535 0.09598454 -0.11517553 -0.09897751 -0.19908123 -0.042108446 -0.09844175 0.111047246 0.1287697 0.05326678 0.20790567 0.038775194 0.2611663 -0.11797465 0.42047548 0.039965115 0.06833962 -0.04394227 0.088411644 -0.06255803 -0.16166681 0.021022057 -0.12124356 0.0639274 -0.05183673 0.0673477 -0.021160278 -0.0354716 -0.07199532 0.27659336 -0.055701297 0.14096354 0.16230765 -0.023151396 0.097756356 0.28994137 -0.047466792 -0.048220612 0.007571346 -0.027242491 -0.07122335 0.057970356 -0.3032357 0.021855978 0.049587112 -0.13359049 -0.0065873633 -0.041812357 0.0032616952 0.008890131 0.24988876 0.005108997 0.04635743 -0.052272595 0.071321316 -0.19165097 0.08908949 -0.21983227 -0.19035374 0.0034114495 -0.092112705 0.06655261 0.043882098 -0.18657023 -0.10327181 0.11499867 -0.020007562 -0.09224093 -0.025340466 -0.012684517 0.06457264 -0.1540916 0.14377339 -0.12521288 -0.17071263 -0.10464795 -0.22177148 -0.012839822 0.052922815 -0.063421085 -0.08662637 0.21250212 0.29652435 -0.066556014 0.18114562 -0.091212615 -0.002133884 -0.07774503 -0.13286093 -0.015761632 0.028489871 -0.103794165 0.019810952 -0.0012850339 -0.06613652 -0.07961184 -0.09907162 -0.08006217 0.1134836 0.013914286 0.013081307 -0.10855272 0.08571003 -0.054470282 -0.14656723 -0.11621383 -0.025491957 -0.20178138 -0.01061823 0.1655026 0.21778747 -0.0012866781 -0.0025425449 -0.05554956 -0.13102326 -0.34584433 0.015393228 -0.18020968 0.07427263 0.16264418 0.34540516 0.06553915 -0.054368626 0.10620047 -0.079777226 -0.027927935 -0.019986859 0.039753146 -0.019978656 0.059927907 -0.05529784 0.060412854 0.10336191 0.12671441 -0.01883563 -0.07570605 -0.13049336 -0.0317976 -0.26110274 -0.14793034 -0.024552478 0.20018223 0.030062277 -0.15275429 0.12960362 0.048039846 0.059273623 -0.07786523 0.12260882 -0.0021463272 0.12915535 0.08616594 0.027226474 -0.22481745 -0.2635857 -0.06981522 -0.15422362 0.104336046 0.16429667 -0.1175807 -0.08119961 0.026862938 -0.022007199 0.19746232 -0.007978383 0.060482074 -0.06353991 0.09130389 0.0593127 -0.028710233 0.09256822 -0.09942037 -0.07262262 0.03165746 -0.2792741 -0.21075314 0.10474174 -0.23573655 0.24551453 0.15686071 -0.098087646 0.018411152 -0.0187841 0.075486876 0.1686048 -0.23803185 0.115898125
http://ontology.daniel-motz.de/ontology#Mozzarella 0.09320213 0.28131652 0.038438473 -0.025332984 0.061418567 0.17562388 0.04882915 0.21513902 -0.11363885 -0.059733506 0.021413276 -0.111189276 0.081147596 0.08542386 0.09779484 -0.11505962 -0.10492695 -0.2038556 -0.038191177 -0.10092613 0.11653931 0.121825986 0.051306482 0.20838709 0.041713733 0.2575241 -0.11147075 0.41359347 0.039285522 0.077142835 -0.042988826 0.086212106 -0.06416919 -0.15866248 0.031872924 -0.12284371 0.06506622 -0.055291153 0.058176525 -0.021454096 -0.039711133 -0.058791224 0.28261778 -0.05124217 0.14089893 0.16091615 -0.01971558 0.09848035 0.29457453 -0.0460296 -0.053086087 0.010309389 -0.03025697 -0.06998467 0.054977994 -0.30823326 0.021762706 0.0599976 -0.14098956 -0.002850183 -0.041359037 -0.005862807 0.010411964 0.26276192 0.008600002 0.043631975 -0.05170006 0.07171591 -0.19296521 0.082055666 -0.22322802 -0.20047753 -0.0016776907 -0.100092545 0.06960505 0.047297593 -0.18834455 -0.10183809 0.11703735 -0.022076992 -0.095765084 -0.02939735 -0.019577753 0.06961805 -0.14702637 0.14705811 -0.12840192 -0.1723451 -0.09910824 -0.22842738 -0.007995892 0.05075445 -0.06326725 -0.09131156 0.2074261 0.30094546 -0.065901995 0.1804469 -0.08861153 0.002371299 -0.07696471 -0.13898417 -0.01602469 0.038333014 -0.08971647 0.010736481 -0.010899391 -0.06951085 -0.07604503 -0.09459296 -0.08878756 0.11927323 0.020708097 0.015210461 -0.102720805 0.078408696 -0.054385964 -0.15520178 -0.11579366 -0.031264983 -0.20762083 -0.008047976 0.16599418 0.22787341 -0.0029157186 0.009885856 -0.055459794 -0.12632307 -0.34705177 0.022139512 -0.17698474 0.08617064 0.16520645 0.34861583 0.067507274 -0.053713787 0.11237538 -0.07612103 -0.027299246 -0.022048548 0.036044747 -0.02303479 0.07206786 -0.06083766 0.065183006 0.10600378 0.12705384 -0.01819272 -0.06656001 -0.12964895 -0.028487647 -0.2581926 -0.14927422 -0.02941736 0.19644165 0.028359896 -0.1539662 0.13326634 0.04887433 0.059008792 -0.07513805 0.13007581 -0.0002671398 0.1299824 0.083428815 0.029121013 -0.22157808 -0.25847942 -0.07032945 -0.15497378 0.09833745 0.16095045 -0.12088387 -0.084877074 0.01959193 -0.0261413 0.19697174 -0.011065026 0.061282918 -0.06091819 0.08335072 0.052659087 -0.029142126 0.095577426 -0.096113816 -0.067500144 0.028774388 -0.28990072 -0.20761518 0.09610801 -0.23427463 0.24481285 0.14808309 -0.095502675 0.026289849 -0.01734297 0.0796425 0.16145039 -0.24358219 0.10930982
http://ontology.daniel-motz.de/ontology#Pizzeria 0.09781466 0.2858245 0.04978463 -0.03079773 0.04983851 0.19162692 0.048118882 0.21021453 -0.116603956 -0.0611444 0.019526321 -0.11686464 0.083239056 0.09103322 0.09528329 -0.12054259 -0.10172729 -0.20421644 -0.034871303 -0.09202888 0.103219755 0.121876605 0.05552732 0.20814899 0.040449247 0.25902313 -0.11982007 0.42111763 0.037500508 0.06977323 -0.04042718 0.0830432 -0.05618844 -0.16760671 0.0217265 -0.11941996 0.06707804 -0.052571975 0.06928626 -0.017798275 -0.040554296 -0.06672839 0.27988952 -0.05567817 0.13939662 0.16440511 -0.019634167 0.095898226 0.29576093 -0.049259298 -0.045332517 0.013547447 -0.029789904 -0.07148841 0.05273489 -0.30702743 0.020307496 0.047844473 -0.14381401 -0.0038549113 -0.04359356 -0.0061850995 0.00046623545 0.26667488 0.008927637 0.052296042 -0.05326869 0.08360543 -0.20086461 0.08993664 -0.22726865 -0.20300637 0.0015907133 -0.09327313 0.06755648 0.049197122 -0.19101529 -0.109637626 0.117466204 -0.030764783 -0.096955046 -0.027377583 -0.016830925 0.0691747 -0.15798055 0.15256363 -0.13137789 -0.18547344 -0.1124971 -0.22857955 -0.0048051775 0.055570737 -0.05723545 -0.098043606 0.21417366 0.31131342 -0.06393241 0.17723267 -0.086566314 0.0032427283 -0.07544708 -0.13343097 -0.010983442 0.029207852 -0.09333703 0.016262684 -0.0027697603 -0.06937653 -0.078959 -0.097912945 -0.0937489 0.12234872 0.010654735 0.020367712 -0.103890926 0.07802386 -0.059973083 -0.15190281 -0.1261302 -0.029094012 -0.20897949 -0.0077435547 0.16573796 0.22337288 0.006730927 0.0067011225 -0.05229928 -0.13123417 -0.3483094 0.025108919 -0.18025266 0.076893225 0.17160319 0.3511148 0.066048756 -0.049412806 0.11872765 -0.07792948 -0.029157411 -0.026817543 0.041234266 -0.025147596 0.07500295 -0.055875216 0.066707514 0.10103886 0.12125453 -0.027478945 -0.06310089 -0.13957323 -0.030530822 -0.26883778 -0.15549572 -0.028910605 0.20943226 0.03871963 -0.15861715 0.141175 0.05278246 0.055325523 -0.064685404 0.13337961 0.0007270028 0.13177925 0.08187133 0.03764227 -0.22842795 -0.27086958 -0.07570209 -0.1564346 0.09692855 0.17074347 -0.12666145 -0.085457705 0.015363577 -0.022266397 0.19945054 -0.012336693 0.054789253 -0.066214144 0.091736905 0.055849183 -0.022059197 0.096413784 -0.0952014 -0.07568364 0.031055668 -0.29503396 -0.2218217 0.10048739 -0.22700948 0.25806424 0.15022068 -0.09873279 0.023237038 -0.01632886 0.07407754 0.17567559 -0.23491494 0.119270824
chicken 0.04021653 0.36801785 0.046663743 -0.014031686 0.07822687 0.22173528 0.037099116 0.2017911 -0.14898372 -0.09259199 0.028484441 -0.1160908 0.09636689 0.06292175 0.086875 -0.12149891 -0.13292928 -0.29488742 -0.01672392 -0.09580011 0.061375756 0.09506128 0.07245689 0.19925383 0.046325143 0.228952 -0.09814756 0.44426093 0.04282071 0.07321951 -0.085511975 0.10921006 -0.08542033 -0.22455336 0.07201895 -0.1366895 0.06283489 -0.021155465 0.06617086 -0.04703803 -0.07218758 -0.08563198 0.2936332 -0.060221657 0.10601582 0.13387385 -0.0060621053 0.07696326 0.29450133 -0.0453295 -0.04485465 0.08366189 -0.030242898 -0.08197593 0.034265067 -0.36652887 0.03667311 0.023874119 -0.16278903 -0.018683553 -0.05654574 -0.074340925 0.063271925 0.3162407 -0.0085413465 0.07569337 -0.064850986 0.09690494 -0.18013304 0.08910139 -0.27364752 -0.2174658 -0.016434707 -0.023725614 0.06899892 0.027694834 -0.19811612 -0.12540665 0.14318241 -0.062218595 -0.12378571 -0.031876713 -0.019381009 0.09514834 -0.12619124 0.18910924 -0.15009268 -0.2017924 -0.107289225 -0.25977278 0.0038032834 -0.0042013596 -0.02026201 -0.12733415 0.25745934 0.3385915 -0.08236675 0.19421557 -0.015826773 -0.032743968 -0.112592936 -0.13141555 -0.00994735 0.02889591 -0.11707476 0.0005826462 -0.035316158 -0.09466448 -0.114484 -0.1398209 -0.12618758 0.1362601 -0.010266506 0.06728067 -0.12255563 0.106329225 -0.08539216 -0.1843308 -0.15376133 -0.030250989 -0.24133834 -0.0054296833 0.23949403 0.21892798 0.02824836 0.044311855 -0.052884843 -0.13344298 -0.3868454 0.022403946 -0.20643486 0.107902825 0.16099446 0.4060206 0.073070236 -0.05512536 0.16980036 -0.099236794 -0.051896006 -0.05546245 0.07975016 -0.018507581 0.06834945 -0.08892749 0.077707626 0.03269983 0.11817147 -0.030925829 -0.021626795 -0.18749085 -0.0068082954 -0.27973205 -0.17075524 -0.01593099 0.21375152 0.0048752977 -0.16173871 0.16617207 0.096309446 0.036646444 -0.026798612 0.1445987 -0.035030466 0.18563965 0.09973278 0.06911283 -0.3026774 -0.3163679 -0.098719016 -0.18721701 0.06654004 0.19189286 -0.13405791 -0.12940718 -0.02178688 -0.045581758 0.1859782 -0.035093777 0.058079485 -0.09598543 0.11959917 0.094395146 -0.05018381 0.10457834 -0.08381041 -0.09817785 0.019635145 -0.35239184 -0.2882784 0.12528965 -0.21991093 0.24417494 0.18030919 -0.069895305 0.0535201 -0.002798906 0.085626766 0.16860096 -0.2404985 0.12852891
mekan 0.111868046 0.28090557 -0.075426556 -0.1824849 -0.0474917 0.23323354 0.11751164 0.24652866 -0.1993459 -0.010898442 0.00024483562 -0.11576418 0.08847964 -0.057159994 0.007144761 -0.06866554 -0.017929632 -0.21602952 0.0041105314 -0.22072777 -0.00017599527 0.19738634 0.06524477 0.21906377 0.14157997 0.21583775 -0.021775968 0.4649675 0.05126882 0.061289348 -0.07648587 0.14596105 -0.12942761 -0.22681713 0.11461072 -0.17360203 0.10399532 -0.14425859 0.17679554 0.08954265 -0.11408975 0.0499649 0.29019925 -0.1756231 0.13245794 0.23625584 -0.19279622 0.053698584 0.33027688 -0.0067960154 -0.057966106 0.15243176 0.119827405 -0.09404976 0.05432449 -0.2912699 0.14615719 0.04849297 -0.18546337 -0.024370868 -0.11493778 -0.011854495 -0.035615955 0.39167216 -0.029475953 0.1120792 -0.08640031 0.09110563 -0.25012144 0.101867 -0.23444776 -0.20682709 -0.044678 -0.09060025 -0.073823 0.054674234 -0.20726128 -0.119888835 0.20066918 -0.05206643 -0.13130051 -0.04610465 -0.09044101 0.07351408 -0.22098632 0.25602934 -0.017079644 -0.22018732 -0.12809116 -0.29339767 -0.0925358 0.079719916 -0.041900475 -0.18013561 0.29519507 0.45036396 -0.16084544 0.11169223 -0.073154844 0.03935268 -0.07403244 -0.15943547 0.06461222 -0.050826266 0.1335513 -0.05378258 -0.09240717 -0.16519827 -0.074154645 -0.16691302 -0.097261414 0.1824893 -0.057213154 -0.104809776 0.020971898 0.005828658 -0.08497591 -0.076179504 -0.15960746 -0.10527584 -0.2410137 -0.041201245 0.21803114 0.23199281 0.12353318 0.07147062 -0.0014890282 -0.074087 -0.44018677 0.050940443 -0.28093398 0.1333558 0.06159689 0.4743838 0.0026534353 -0.14434783 0.15021639 -0.15048583 -0.10230098 -0.059644353 0.047442865 -0.056657635 0.17230082 -0.1106469 0.10406939 0.05634179 -0.08263538 -0.1006337 0.014003447 -0.15569435 0.07113381 -0.18584475 -0.083877005 -0.077033035 0.24021523 0.089099266 -0.1271586 0.14162959 0.115331836 0.12558362 -0.11730235 0.18461312 -0.016671257 0.24501817 0.1635869 0.0737247 -0.26957238 -0.37330687 -0.10180781 -0.24965659 -0.034432076 0.20911157 -0.09276447 0.019647982 -0.07106022 0.107320376 0.27954257 -0.14323935 0.08179447 0.011160544 0.15247403 -0.085742 -0.008225194 0.0753657 -0.12433358 -0.03151221 0.002527105 -0.41896498 -0.30248517 0.12264477 -0.17267825 0.31307128 0.0051293075 -0.10604026 0.12985381 0.039767615 -0.044503022 0.028925428 -0.37778947 0.25144204
http://schema.org/price 0.09628204 0.29679927 0.04652569 -0.01923937 0.05300356 0.20227075 0.052812252 0.22044733 -0.12571172 -0.07252987 0.02058543 -0.12149753 0.081656456 0.103160456 0.103213884 -0.12266328 -0.109981135 -0.22217783 -0.033383843 -0.106844485 0.11973065 0.14266755 0.06207969 0.22325096 0.034703616 0.27657226 -0.1289471 0.44555548 0.042858623 0.08877036 -0.04054216 0.08449272 -0.053905506 -0.182804 0.02999738 -0.12667207 0.077149644 -0.04671364 0.06384379 -0.028535148 -0.050387904 -0.07269217 0.29681745 -0.05420241 0.1464487 0.17159049 -0.024480455 0.098440856 0.30869788 -0.04092229 -0.045270246 0.015547795 -0.028979372 -0.07055257 0.058087498 -0.3329711 0.022564564 0.04804982 -0.15226996 0.0015495216 -0.054630753 -0.012998397 0.0058220057 0.28110838 0.0058006262 0.044902552 -0.049721807 0.09284113 -0.20097762 0.09444137 -0.23648824 -0.20036457 -0.0020139483 -0.101177335 0.0791187 0.05035565 -0.19617583 -0.11436123 0.13815221 -0.025288135 -0.10965134 -0.025314199 -0.010139318 0.0629483 -0.1598731 0.15915722 -0.13316453 -0.19862233 -0.11323988 -0.24644849 -0.010241646 0.049819186 -0.056379043 -0.10738971 0.21941146 0.32575962 -0.071865365 0.1901947 -0.092380844 -0.004758973 -0.07742695 -0.14908019 -0.0031126488 0.04241251 -0.112978995 0.01166237 -0.008238517 -0.07547323 -0.08162479 -0.099055775 -0.09912505 0.12442125 0.011113996 0.0275651 -0.10636732 0.09671655 -0.06003109 -0.17134885 -0.12405353 -0.034669276 -0.21970706 -0.008953365 0.17618528 0.2458736 0.007117646 0.007508282 -0.0613375 -0.14077659 -0.36815143 0.025668235 -0.19851275 0.07759962 0.18286438 0.3699295 0.0670278 -0.05561876 0.11754456 -0.07957582 -0.02568121 -0.023940902 0.044940867 -0.02051355 0.07549154 -0.06427031 0.07173684 0.10836715 0.13767458 -0.023822896 -0.07031946 -0.13817233 -0.03907638 -0.28484255 -0.17460908 -0.026998071 0.22106838 0.027404675 -0.17313775 0.15105402 0.06521538 0.06005782 -0.071289666 0.1351937 -0.010460179 0.1362527 0.09515654 0.031970516 -0.24084581 -0.27771106 -0.08508319 -0.17090517 0.10739635 0.16459942 -0.13177846 -0.081443444 0.025412442 -0.021085879 0.20300567 -0.021833608 0.052997913 -0.06912077 0.09600536 0.07166036 -0.029765395 0.1037903 -0.103181615 -0.07699838 0.032693125 -0.3087272 -0.23081309 0.10377694 -0.23829986 0.26418695 0.15640715 -0.098708615 0.027448831 -0.01935696 0.08935888 0.174025 -0.24450019 0.12802371
mozzarella 0.05976719 0.34420702 0.02503391 -0.026209211 0.032759957 0.20119962 0.054089572 0.18542284 -0.13242926 -0.04421578 -0.0015044368 -0.12735869 0.08940274 0.041006528 0.08449362 -0.10490241 -0.10313182 -0.2718712 -0.007798505 -0.08304208 0.062026456 0.12987322 0.06354757 0.19993524 0.05618096 0.2128327 -0.0829952 0.44728744 0.040352397 0.063499846 -0.09858253 0.122686125 -0.090134375 -0.21063365 0.079161316 -0.1154101 0.07270669 -0.051988382 0.08897473 -0.0033123845 -0.06640439 -0.06519013 0.27367043 -0.08395728 0.09383852 0.16527742 -0.03539277 0.06259539 0.29675043 -0.024121333 -0.034013677 0.09348139 -0.0032086668 -0.09448213 0.04832535 -0.34074458 0.04052503 0.033012874 -0.15014105 -0.020687908 -0.044239596 -0.05145426 0.037520424 0.3116939 -0.007877671 0.089178786 -0.059439134 0.097102426 -0.17960301 0.08612299 -0.25077453 -0.21598807 -0.052865915 -0.036113758 0.06234977 0.04616766 -0.20229158 -0.104150005 0.14848047 -0.07550893 -0.14127882 -0.026668714 -0.041650206 0.07939009 -0.14863761 0.19710836 -0.110521205 -0.20666176 -0.13618897 -0.26672274 -0.007637659 0.022179242 0.00090946903 -0.12275886 0.23265049 0.34775883 -0.09006939 0.15881068 -0.045881685 -0.02748696 -0.0988381 -0.14095834 0.008646837 0.037137628 -0.0505736 0.0011761186 -0.01788537 -0.11881407 -0.09560853 -0.16106625 -0.1031384 0.1414212 -0.013546563 0.030299913 -0.09436626 0.07667514 -0.05136503 -0.14092077 -0.13777311 -0.04364878 -0.22945374 -0.009425873 0.21962783 0.22411802 0.035593025 0.041850787 -0.056878585 -0.085652545 -0.39075103 0.022605343 -0.19190347 0.09843718 0.13879155 0.39496407 0.049165964 -0.071849585 0.14071964 -0.097435325 -0.07139789 -0.05104736 0.064027466 -0.036028694 0.09068789 -0.08091008 0.09072438 0.046419814 0.10707705 -0.04523351 -0.010927437 -0.17701928 -0.00816729 -0.2677347 -0.16335149 -0.0318049 0.21775346 0.031173674 -0.16712365 0.15645672 0.117834546 0.07669974 -0.027341671 0.16572201 -0.02760415 0.18481374 0.11136351 0.059393115 -0.2838531 -0.31487966 -0.0905724 -0.20778054 0.049577814 0.21569502 -0.11078064 -0.0758951 -0.033574134 -0.027436564 0.21134079 -0.053720195 0.045829054 -0.08560062 0.11028353 0.07232587 -0.056299035 0.0911797 -0.07725068 -0.09043831 0.0052199103 -0.3638708 -0.26932186 0.11453331 -0.20191452 0.27198744 0.14261562 -0.059342496 0.06245883 -0.009077513 0.05523851 0.14239192 -0.25736064 0.13562779
tomatensauce 0.0625567 0.3363855 0.025206018 -0.026512077 0.038625598 0.20492017 0.05901797 0.19594227 -0.1359755 -0.041893017 0.00174966 -0.12694 0.08595067 0.04811835 0.09051649 -0.10726616 -0.09792383 -0.26893398 -0.0117304325 -0.0832898 0.06926155 0.13072467 0.064645655 0.21396005 0.057201263 0.21931392 -0.08748488 0.45233247 0.041794043 0.066763066 -0.0929247 0.11778252 -0.08482727 -0.20674741 0.08238787 -0.1210865 0.06904677 -0.059475936 0.09123486 -0.004918812 -0.06323254 -0.06449159 0.26432052 -0.081097 0.108217 0.1739681 -0.032644678 0.0659695 0.2976154 -0.01666706 -0.025303798 0.08205557 -0.007489047 -0.095704906 0.04870165 -0.3333543 0.045830872 0.036480267 -0.1516668 -0.015063369 -0.05478835 -0.04254338 0.039810706 0.31428042 -0.0010272338 0.08286028 -0.055169698 0.09986272 -0.18255325 0.089544296 -0.24636017 -0.21124043 -0.05171423 -0.048356414 0.05439811 0.052339107 -0.20376436 -0.10426054 0.15031442 -0.0625074 -0.13687281 -0.015347158 -0.04268166 0.07997537 -0.15581897 0.18784808 -0.11558884 -0.20314793 -0.13164552 -0.2677536 0.00399878 0.032975573 -0.018292863 -0.13201694 0.22782016 0.3412702 -0.07938771 0.16590814 -0.04793558 -0.018687373 -0.103065185 -0.1344568 0.008436392 0.036774244 -0.062497176 0.008151736 -0.01919924 -0.11018161 -0.0913994 -0.15450974 -0.09321601 0.13979298 -0.021016046 0.028274147 -0.08647237 0.0734527 -0.058955796 -0.15155654 -0.13009053 -0.0414117 -0.22369938 -0.007886769 0.21072221 0.2361336 0.031626794 0.03398332 -0.05462233 -0.09274204 -0.39007887 0.019577982 -0.20270522 0.09694037 0.14666797 0.3975863 0.048944376 -0.06967763 0.14749645 -0.093172476 -0.065943874 -0.049822304 0.065966524 -0.03401872 0.092709936 -0.0713511 0.07896141 0.058443945 0.10653851 -0.041068725 -0.023375986 -0.17445615 -0.008826002 -0.27147672 -0.1643151 -0.04050471 0.21889913 0.027890874 -0.17146564 0.15862033 0.11830821 0.07915049 -0.03937244 0.15799852 -0.014038749 0.17899927 0.11510008 0.053680215 -0.2859393 -0.3080178 -0.08889467 -0.1943881 0.06308204 0.20706353 -0.105099104 -0.07768216 -0.020111743 -0.019334622 0.21587902 -0.058440626 0.055984702 -0.07785555 0.10861334 0.07558696 -0.056804337 0.08531188 -0.0874552 -0.09319934 0.015329068 -0.34678236 -0.25704363 0.11711957 -0.20365697 0.2685853 0.14400052 -0.062487457 0.061104193 -0.01228636 0.063195154 0.15641387 -0.25313014 0.13439868
http://ontology.daniel-motz.de/ontology#hatPizza 0.0937563 0.28204286 0.04969262 -0.021983229 0.058947448 0.19159816 0.05359093 0.22050963 -0.11323538 -0.06806894 0.02326432 -0.12349576 0.08317363 0.10394961 0.10373921 -0.115150854 -0.109044425 -0.20595323 -0.035049763 -0.092932135 0.116224974 0.13041802 0.05916592 0.21596186 0.04333918 0.25461036 -0.12638864 0.42113978 0.036356643 0.07110108 -0.047155857 0.09112894 -0.0597521 -0.172912 0.016269138 -0.12624164 0.07667519 -0.053310923 0.071603976 -0.02606268 -0.04505247 -0.07120268 0.2833859 -0.04843066 0.14233151 0.16131645 -0.016251462 0.10185229 0.29527968 -0.04124628 -0.05246203 0.008398221 -0.021433229 -0.063905664 0.04621088 -0.30792317 0.022983497 0.057146545 -0.1426773 -0.0010594786 -0.040136572 -0.0072733504 0.0038101408 0.26694426 0.008044488 0.051128723 -0.052792817 0.07518446 -0.20376925 0.09429669 -0.21906933 -0.19576976 -0.0061795977 -0.091719784 0.06700489 0.046207596 -0.19770315 -0.1085448 0.12434848 -0.02446569 -0.10049367 -0.022841165 -0.02276568 0.07203546 -0.15123264 0.15125084 -0.12460025 -0.1854778 -0.11528619 -0.23145923 0.00016743314 0.053766087 -0.066117756 -0.089286715 0.21286507 0.30558085 -0.06292268 0.18300271 -0.08245038 -0.007086352 -0.07700436 -0.13820383 -0.019188803 0.037801016 -0.1066248 0.020267263 -0.0019711978 -0.06509408 -0.078318335 -0.102204226 -0.0897766 0.121594034 0.022060446 0.014210766 -0.111498766 0.08169203 -0.056179363 -0.15984425 -0.114167 -0.037941325 -0.21090952 -0.0032794569 0.1683246 0.23093545 -8.465055e-05 0.004137461 -0.056118164 -0.13155931 -0.35325783 0.022023993 -0.1854169 0.08059799 0.17500418 0.34590828 0.07206694 -0.058762353 0.11605904 -0.07310411 -0.035194144 -0.019854195 0.036509026 -0.029085422 0.07069377 -0.057145312 0.06839055 0.10742175 0.13054037 -0.020945685 -0.07367736 -0.13398355 -0.040133134 -0.26790324 -0.1650278 -0.024757268 0.21363539 0.037893318 -0.15368588 0.13289648 0.051055055 0.06102166 -0.072784364 0.124594 -0.0037805308 0.13651592 0.08194173 0.026539199 -0.2319288 -0.2722604 -0.07821869 -0.16455577 0.10459409 0.1645035 -0.11971272 -0.08672634 0.018473731 -0.0300093 0.19436604 -0.015961789 0.04715302 -0.06304286 0.09651588 0.06938242 -0.024145423 0.100965 -0.0997965 -0.07154681 0.034970835 -0.29298595 -0.21780509 0.10112032 -0.23062482 0.26168606 0.15775393 -0.10258715 0.020407978 -0.018052904 0.0895023 0.18018986 -0.23636734 0.12322349
http://ontology.daniel-motz.de/ontology#gehoertZuPizzeria 0.09809523 0.28256607 0.051953405 -0.022144347 0.056769874 0.18649422 0.055698674 0.2209829 -0.114428975 -0.071013264 0.016014136 -0.12239948 0.08224791 0.10273625 0.1053226 -0.12293267 -0.10134127 -0.20142695 -0.043710362 -0.09578067 0.11304671 0.13538729 0.061835088 0.21936432 0.0390805 0.25946942 -0.12789853 0.42641482 0.029820336 0.07160383 -0.046604924 0.08630691 -0.060008124 -0.17045973 0.01628219 -0.119791515 0.07414955 -0.051544517 0.07049553 -0.018832404 -0.044211227 -0.06351413 0.28875422 -0.044827644 0.13963437 0.15992044 -0.018322498 0.1056609 0.301381 -0.04506294 -0.056734946 0.007526861 -0.023454979 -0.06606184 0.04835758 -0.31090236 0.014440467 0.05349812 -0.13860494 -0.0047500744 -0.03497966 -0.00981508 0.0004842103 0.26321876 0.011509244 0.051872846 -0.052420937 0.07996796 -0.19784105 0.08990567 -0.22438258 -0.19548707 -0.004005366 -0.09653392 0.071677394 0.044058144 -0.19780493 -0.10036549 0.11828506 -0.024990931 -0.09380983 -0.02230412 -0.014674472 0.07477752 -0.14705966 0.15180479 -0.12962689 -0.17818719 -0.11337741 -0.23134966 -0.0007854314 0.05982224 -0.066169634 -0.089042485 0.21677226 0.31072026 -0.06869487 0.18556532 -0.09240666 -0.0011931588 -0.080118105 -0.13379115 -0.021080505 0.03749736 -0.10610433 0.022653773 -0.0056454046 -0.06500638 -0.07887016 -0.09767307 -0.084599935 0.122504376 0.016162433 0.016237002 -0.11065927 0.0837251 -0.053670008 -0.16396978 -0.11368821 -0.035897817 -0.21438338 0.00027599526 0.16659297 0.22892678 0.0073986403 -0.0011612824 -0.05413408 -0.13499086 -0.35703084 0.020008313 -0.18270433 0.085237995 0.17500882 0.35099727 0.07177284 -0.058441803 0.11691864 -0.07332559 -0.03074752 -0.023010213 0.034127995 -0.023359107 0.06863084 -0.0564379 0.063534684 0.106953576 0.12994173 -0.022680074 -0.07613244 -0.13062486 -0.041043337 -0.26908198 -0.16600946 -0.025656845 0.21260655 0.038888708 -0.15452853 0.13699587 0.047293503 0.055006124 -0.07248647 0.1303702 8.288868e-05 0.13346048 0.08108786 0.02568835 -0.23533106 -0.2666248 -0.07458984 -0.16044429 0.10809923 0.16596426 -0.12508222 -0.086627275 0.025844293 -0.02470692 0.19423555 -0.017044825 0.050690766 -0.060870353 0.08854648 0.07051569 -0.026369223 0.09541428 -0.10854143 -0.067960255 0.029435016 -0.282671 -0.21944699 0.106415145 -0.23664916 0.25439397 0.16159587 -0.097789414 0.019951148 -0.023328189 0.090612605 0.17535146 -0.23117222 0.12287445
http://ontology.daniel-motz.de/ontology#Pizza_Hawaii_bei_Mekan 0.10626306 0.29212856 0.0494528 -0.02660482 0.052328896 0.18848643 0.054971393 0.22302994 -0.11950193 -0.05977452 0.012525971 -0.1184944 0.083152 0.10186955 0.098405816 -0.12543993 -0.10453786 -0.21586114 -0.038345087 -0.09386795 0.11450364 0.13531613 0.04917541 0.21232492 0.0372386 0.25975758 -0.117852546 0.42310646 0.026603302 0.0766463 -0.038351726 0.08548697 -0.062192846 -0.16898021 0.024906255 -0.11726792 0.06942475 -0.06301377 0.06479429 -0.024840936 -0.0421627 -0.0672751 0.29345134 -0.050567403 0.13665198 0.16368161 -0.018508459 0.10052183 0.296085 -0.053100206 -0.05365078 0.01891571 -0.02254219 -0.06572003 0.051302083 -0.32122964 0.014523965 0.05522854 -0.1397454 0.0011585866 -0.03600532 -0.012225547 0.007044799 0.2665545 0.0024529933 0.048037622 -0.06154734 0.07363985 -0.19962251 0.085625395 -0.2231916 -0.20023064 0.0059924563 -0.10102398 0.06307419 0.047232162 -0.19948532 -0.10233093 0.11129413 -0.025335984 -0.093878426 -0.030211864 -0.024886562 0.074834846 -0.15549405 0.15136077 -0.13386732 -0.1820314 -0.10523516 -0.2344412 -0.009570084 0.056481056 -0.06723872 -0.09728555 0.21637422 0.30500907 -0.061754774 0.1880952 -0.07998991 -0.010792988 -0.069345385 -0.14285694 -0.018769931 0.040206373 -0.10013605 0.022152416 -0.01144057 -0.08113298 -0.07781665 -0.09782847 -0.09228507 0.122811705 0.0228298 0.024076577 -0.10758911 0.084183045 -0.05141778 -0.15596223 -0.12245259 -0.034787577 -0.21455842 -0.0033921117 0.1694249 0.2359736 0.004558021 -0.0074336096 -0.054817922 -0.13259648 -0.3627662 0.015250697 -0.18562126 0.090549156 0.17390533 0.3495541 0.06479058 -0.05096102 0.10892019 -0.073593006 -0.024752604 -0.01877813 0.03679071 -0.028677883 0.0675151 -0.054002468 0.06536926 0.11034228 0.12480869 -0.028939562 -0.07700701 -0.13188735 -0.03226672 -0.27306446 -0.15811309 -0.024790915 0.21428932 0.034144726 -0.16398476 0.13245308 0.055723898 0.054728106 -0.07335125 0.12653731 0.0007629069 0.12394159 0.08040713 0.03469085 -0.2367955 -0.2743642 -0.078805044 -0.16234967 0.10697698 0.16833994 -0.12428425 -0.0818942 0.022988308 -0.023065342 0.20310062 -0.007845696 0.056561373 -0.0633158 0.09003993 0.06443551 -0.023990788 0.09050384 -0.10702108 -0.06890123 0.027424736 -0.2838948 -0.21883792 0.108230226 -0.23972967 0.25801745 0.1579376 -0.098657414 0.026574126 -0.019931704 0.08181281 0.17429237 -0.2392589 0.123295054
currency 0.046536583 0.38531068 0.042849142 -0.013700466 0.08224229 0.17683212 0.058849387 0.23776244 -0.14022371 -0.12316597 0.028236315 -0.17719302 0.09943326 0.09332335 0.10204156 -0.084691554 -0.11381937 -0.2883616 0.03536434 -0.12855023 0.058008898 0.044844575 0.07598778 0.24862297 0.029224882 0.2858945 -0.101865746 0.39733526 0.045354508 0.051930867 -0.06946295 0.10476391 -0.03822328 -0.21844125 0.07395712 -0.13782537 0.012582316 0.0025333457 0.05206948 -0.037981626 -0.037720203 -0.11986784 0.31329894 0.0011187732 0.1359412 0.12715788 0.02752847 0.1411314 0.30986518 -0.037803374 -0.0016187169 0.1054199 -0.09006692 -0.09484024 0.04531453 -0.39747593 0.011938573 0.035436824 -0.13837034 0.0029209855 -0.06513525 -0.0760872 0.10371147 0.30570492 -0.0020373582 0.07334732 -0.09498695 0.10596427 -0.17626484 0.11231749 -0.2495141 -0.22195798 0.027582068 -0.05126177 0.06886665 0.06953827 -0.23080257 -0.15199153 0.18121533 -0.06812837 -0.17478155 0.018270373 0.011334249 0.05805664 -0.10428056 0.16789411 -0.15717146 -0.2458257 -0.090890266 -0.2871412 -0.008147459 0.047518317 -0.0271501 -0.15383555 0.23833393 0.30071422 -0.116111 0.2503227 -0.028795112 -0.010153183 -0.09732838 -0.16903295 -0.022521755 0.033485062 -0.13193777 0.015988868 -0.030800553 -0.08561867 -0.13100801 -0.10271358 -0.11161051 0.17355649 0.018444447 0.0688042 -0.10060947 0.13106848 -0.09843141 -0.15087436 -0.20509632 -0.04963037 -0.22090913 -0.05190021 0.23484264 0.21993239 -0.026587993 0.04043914 -0.038283512 -0.1873982 -0.3502648 0.041238 -0.18344504 0.044419605 0.19858353 0.38217023 0.08896424 -0.06229852 0.12816058 -0.031869933 -0.060810585 -0.06908257 0.08289451 -0.026485074 0.07852496 -0.06503504 0.06153389 0.031329248 0.15162243 -0.064388335 -0.045560107 -0.20464778 0.002920527 -0.2738278 -0.21839999 -0.058527883 0.20637827 0.0010111312 -0.19333221 0.19809125 0.064480014 0.004362398 -0.04698471 0.12821376 -0.049771022 0.14752558 0.031527504 0.028526826 -0.29796284 -0.31810847 -0.10277397 -0.17423202 0.09532561 0.15321334 -0.16353971 -0.17548062 -0.00043591077 -0.011793615 0.17396294 -0.034742624 0.10409037 -0.11323191 0.111154675 0.078957714 0.006551015 0.1388605 -0.060753625 -0.09292857 0.058395468 -0.29712647 -0.24823818 0.14835493 -0.21130653 0.22656031 0.1846592 -0.040722605 0.03290443 -0.0005593749 0.12911999 0.21669607 -0.27779457 0.12242152
http://schema.org/priceCurrency 0.07813971 0.2887764 0.04978604 -0.00903065 0.0475197 0.18412031 0.04957017 0.23642662 -0.11877312 -0.07201781 0.032029886 -0.10914379 0.07762729 0.11315727 0.10265059 -0.13420165 -0.11074015 -0.19585542 -0.043679893 -0.09384867 0.12128053 0.14493227 0.070012696 0.21199313 0.03435443 0.26662087 -0.12803169 0.4532668 0.019238109 0.07612988 -0.052213833 0.07895999 -0.048274226 -0.18363023 0.024004038 -0.11427436 0.08610451 -0.070492566 0.05677222 -0.0128520075 -0.035971403 -0.045928817 0.28868598 -0.07624166 0.15250824 0.16185756 -0.035487976 0.112584755 0.30246806 -0.06139043 -0.05667098 0.025271915 -0.038770866 -0.07077374 0.058143593 -0.31645218 0.020013057 0.04972152 -0.15666384 -0.00055899937 -0.047604296 -0.008154086 0.007243133 0.26823825 0.016148234 0.05590255 -0.046422403 0.09725563 -0.19102283 0.09843018 -0.21732298 -0.20271182 0.00043904796 -0.104627244 0.084018916 0.0364386 -0.18139759 -0.12191888 0.13833104 -0.046865936 -0.118255325 -0.0053498778 -0.009540732 0.06181571 -0.1675061 0.17088382 -0.11100289 -0.20743343 -0.10704954 -0.24700035 -0.000788192 0.053134117 -0.07033726 -0.106995255 0.22493911 0.33307454 -0.092539944 0.20660847 -0.079085335 0.016053166 -0.061732143 -0.15303996 -0.02057692 0.04446638 -0.109009065 -0.008964106 -0.0048637404 -0.060961455 -0.06274513 -0.11075021 -0.10268542 0.116946004 0.019552123 0.0040573454 -0.10860492 0.060852982 -0.06505841 -0.16660018 -0.1179562 -0.021646818 -0.2363696 -0.0014677353 0.17729406 0.25348353 0.021700615 0.0012238608 -0.043106053 -0.12962857 -0.38151717 0.016623408 -0.1744557 0.08835888 0.16728742 0.36100972 0.08671626 -0.07023445 0.11137131 -0.08007094 -0.021276038 -0.05323059 0.036331084 -0.030627642 0.06005078 -0.06059994 0.06354367 0.08967951 0.122128986 -0.012001246 -0.046829805 -0.1409394 -0.031242602 -0.25862265 -0.1768294 -0.023686087 0.21530071 0.040348466 -0.17442124 0.15166564 0.07111646 0.07394047 -0.08521118 0.14094494 0.017453857 0.13435265 0.10421948 0.014588256 -0.2318007 -0.27899128 -0.091821365 -0.1845371 0.105829425 0.15865184 -0.13051678 -0.10044729 0.03353353 -0.017172622 0.22428773 -0.02985529 0.048229445 -0.06414701 0.099637516 0.07137823 -0.01066639 0.10495445 -0.11899018 -0.081041954 0.05332732 -0.30141374 -0.21511547 0.10341408 -0.24656376 0.26879066 0.16834159 -0.091161065 0.010989954 -0.019961674 0.09784511 0.19001156 -0.23681103 0.11377094
http://www.w3.org/1999/02/22-rdf-syntax-ns#type 0.11051164 0.28988618 0.05441916 -0.024231447 0.06927622 0.18214764 0.04471522 0.22659318 -0.12681091 -0.0659433 0.023886614 -0.115268044 0.084684625 0.107660264 0.108087525 -0.1270524 -0.10837491 -0.2166922 -0.041681737 -0.093443654 0.11522952 0.1276943 0.048657857 0.22479519 0.03196828 0.2756437 -0.12931414 0.4340412 0.037987795 0.06467676 -0.034150083 0.09664574 -0.056985363 -0.1543224 0.010454891 -0.13482946 0.07329076 -0.05674656 0.057577092 -0.035857413 -0.0400506 -0.076264665 0.28434703 -0.05282699 0.14735803 0.1618243 -0.021569695 0.104007564 0.2966095 -0.055748574 -0.052868016 0.003850242 -0.028221758 -0.07269396 0.06806619 -0.31811813 0.004375495 0.061092205 -0.1385437 -0.012782761 -0.036172614 0.010763897 -0.001494394 0.25517 0.006727607 0.039247263 -0.06035985 0.06973883 -0.20646055 0.09748165 -0.2231068 -0.19562545 0.010316745 -0.1083769 0.07804492 0.03935338 -0.19813223 -0.11193788 0.11584243 -0.020654626 -0.08982316 -0.025630325 -0.021924054 0.07467255 -0.1608842 0.15686373 -0.1301433 -0.18384545 -0.10854578 -0.22440667 -0.014605545 0.062283628 -0.07302885 -0.0893412 0.20820506 0.30403516 -0.0537551 0.19681881 -0.09028285 -0.011941858 -0.07471849 -0.13475977 -0.019811954 0.029168267 -0.10609376 0.022777196 -0.008198453 -0.061484423 -0.07352745 -0.09010193 -0.08102449 0.118051544 0.025437897 0.022752678 -0.11841772 0.074506514 -0.044742055 -0.16091932 -0.1196717 -0.038154706 -0.21444876 -0.0023277658 0.16654442 0.22806296 -0.0064360327 -0.012560291 -0.062478732 -0.12809846 -0.35939622 0.01616745 -0.18960424 0.07777081 0.18911484 0.34344226 0.078931406 -0.05609772 0.10772552 -0.07145267 -0.03418887 -0.018570175 0.029210363 -0.032788914 0.06543007 -0.04869633 0.05819676 0.11714607 0.13977182 -0.013288657 -0.09102148 -0.12575787 -0.040690787 -0.2691006 -0.16088037 -0.026603695 0.20347643 0.03435081 -0.1619542 0.13479786 0.05390088 0.060977947 -0.0821502 0.12598214 -0.001166577 0.115354456 0.079844564 0.031894796 -0.23442891 -0.26014826 -0.065206125 -0.14969546 0.11356607 0.15740372 -0.11733211 -0.082771935 0.025365395 -0.028096372 0.20701069 -0.0010494819 0.06374428 -0.05176225 0.081273295 0.06465935 -0.029078238 0.109049596 -0.116650276 -0.070030324 0.031019801 -0.27588043 -0.2216761 0.10421768 -0.23834208 0.24847895 0.16091828 -0.11059022 0.014965853 -0.024674894 0.090029866 0.1734143 -0.2430408 0.111498125
http://ontology.daniel-motz.de/ontology#Pizza_FCC_bei_Mekan 0.105607636 0.2933701 0.04478741 -0.032512 0.051292438 0.19300951 0.055217087 0.22359574 -0.12276479 -0.06154651 0.014900287 -0.11491433 0.08162322 0.09701307 0.100592464 -0.11873953 -0.104745224 -0.21451811 -0.042679183 -0.09039515 0.11152907 0.12521856 0.054955762 0.2130329 0.03801486 0.26496404 -0.119740084 0.42824504 0.026749212 0.07249434 -0.041759554 0.08838512 -0.06430371 -0.17014131 0.026629886 -0.12205044 0.074125804 -0.059610166 0.0709163 -0.030082734 -0.040197264 -0.07050542 0.29197055 -0.05716094 0.14274192 0.16072492 -0.01591482 0.10216906 0.29158315 -0.05465798 -0.0477815 0.011649812 -0.030167192 -0.06828967 0.051234424 -0.32270315 0.018854806 0.056853566 -0.13678622 0.0035733145 -0.045260508 -0.0056029363 0.00063902925 0.26986566 0.0085805105 0.04025793 -0.053604584 0.07019264 -0.20213257 0.09047959 -0.22046083 -0.19506617 0.005104244 -0.09531554 0.07065932 0.041843724 -0.19904327 -0.101103455 0.110073745 -0.024825227 -0.104331255 -0.026519008 -0.019921627 0.06652312 -0.15621899 0.1595872 -0.13553707 -0.18964475 -0.11160367 -0.22547677 -0.009908967 0.0545563 -0.069958605 -0.09158909 0.20739572 0.30775923 -0.06589812 0.1931546 -0.09007704 -0.009357112 -0.07456268 -0.14636984 -0.01832414 0.037044585 -0.10306583 0.015868021 -0.003547667 -0.0785698 -0.07851782 -0.104444936 -0.09125145 0.113661975 0.015684413 0.015182434 -0.10301435 0.077546164 -0.047738977 -0.15183201 -0.12075542 -0.037149306 -0.20981546 -0.0006524205 0.16092497 0.23607178 0.0085396245 -0.0061100167 -0.05952813 -0.12786195 -0.36065322 0.020092351 -0.1881859 0.08666541 0.17086212 0.34139812 0.066580005 -0.053990886 0.11322493 -0.08365463 -0.022849789 -0.022149246 0.036176205 -0.016337506 0.070286244 -0.055449836 0.06128656 0.11053116 0.13171503 -0.01910109 -0.073631786 -0.13396817 -0.03607075 -0.2764713 -0.16381475 -0.022003572 0.21462812 0.03045759 -0.15607625 0.12805057 0.047586113 0.057556044 -0.072470956 0.13411802 0.0015155729 0.12353634 0.08966541 0.031259105 -0.22838597 -0.27321973 -0.082026444 -0.16218863 0.11202343 0.15708344 -0.11678352 -0.07790981 0.018155148 -0.019280568 0.19697787 -0.015569012 0.056490317 -0.06360843 0.08804748 0.0564411 -0.02394893 0.08899383 -0.11000637 -0.07214993 0.03166263 -0.28642264 -0.2224818 0.104816645 -0.23337647 0.25324142 0.15458122 -0.09968683 0.022069912 -0.023063764 0.08394191 0.16888355 -0.24125208 0.12305425
vegetarian 0.059835803 0.3358669 0.034699306 -0.013683003 0.05148931 0.2044988 0.055563293 0.20156205 -0.13823007 -0.052078176 0.021852126 -0.12801464 0.08207032 0.03694303 0.078655414 -0.11262805 -0.10544286 -0.26445252 -0.006190967 -0.112387456 0.081487216 0.118767574 0.056300092 0.2100187 0.052028943 0.23410995 -0.067946136 0.4430598 0.031408355 0.073054686 -0.07804865 0.11392255 -0.0757759 -0.20640455 0.07704822 -0.12445743 0.05552872 -0.05398449 0.071148224 -0.014224603 -0.05801067 -0.066082634 0.27058488 -0.056102898 0.1051946 0.17634769 -0.035681527 0.083582215 0.28108406 -0.035145022 -0.032005046 0.08306563 -0.009487064 -0.093239896 0.058089625 -0.33129802 0.034888636 0.03887522 -0.15514596 -0.013632388 -0.057363585 -0.044043716 0.033744067 0.29479438 -0.012362426 0.0720432 -0.068063885 0.088112004 -0.18623923 0.085148975 -0.26317683 -0.22322495 -0.041618206 -0.0397465 0.059409097 0.055794697 -0.20868969 -0.12749077 0.14873326 -0.071561664 -0.14221409 -0.01466646 -0.018268112 0.09289728 -0.13958545 0.19128849 -0.12092685 -0.2100549 -0.122185774 -0.26542756 0.009581695 0.03087905 -0.017085435 -0.1159825 0.22794345 0.34548405 -0.082540214 0.18189457 -0.04757127 -0.011115898 -0.1104042 -0.12759548 0.008442251 0.037416756 -0.064546235 -0.010912242 -0.019710906 -0.11781867 -0.10683963 -0.1566435 -0.101870306 0.14605394 -0.0202169 0.030884579 -0.091083124 0.0848627 -0.07057585 -0.15308431 -0.14735796 -0.028346045 -0.24365118 -0.02907098 0.19896775 0.23002106 0.02610961 0.03653727 -0.05397639 -0.116583206 -0.3790134 0.028367782 -0.21232209 0.08587108 0.14198722 0.3935089 0.052389327 -0.06523873 0.14226246 -0.07623871 -0.072103396 -0.062142663 0.07333866 -0.030989738 0.08408078 -0.07709422 0.08722876 0.053128395 0.12080245 -0.035598993 -0.037234288 -0.17267281 0.0018370945 -0.25973982 -0.17610261 -0.036655422 0.21393181 0.03320368 -0.17927039 0.16436402 0.10546859 0.05813138 -0.037897505 0.1597152 -0.021081645 0.1775276 0.088592224 0.048955034 -0.28173637 -0.3140235 -0.092609525 -0.19911754 0.060136907 0.21328107 -0.12641233 -0.0931408 -0.017568856 -0.01694858 0.20338726 -0.05879419 0.057609662 -0.09243963 0.102150515 0.068481304 -0.035394333 0.091679625 -0.07715481 -0.06936043 0.018070983 -0.33946162 -0.26172698 0.11012916 -0.21210684 0.2716097 0.14329441 -0.051180203 0.06378244 0.0017322242 0.06915698 0.1617558 -0.2620382 0.1313369
gehoert 0.11784006 0.24882337 -0.031372067 -0.10456558 0.023102676 0.22293608 0.076389074 0.32744235 -0.21758859 -0.06523455 0.06238329 -0.11394192 0.15429062 -0.101821445 -0.04404396 -0.14725554 -0.0062855 -0.15084589 -0.03802014 -0.32059032 0.12163231 0.19403745 0.07747955 0.20549464 0.046598997 0.25439078 0.022062361 0.42395714 0.0029075986 0.129032 0.011806223 0.02691463 -0.080072656 -0.20748052 0.12594777 -0.15892985 -0.05022925 -0.16658705 0.1280269 0.08956029 -0.08986751 0.038914442 0.29697174 -0.10426492 0.22152849 0.29305795 -0.16061416 0.09610399 0.24091256 -0.052039947 -0.10515186 0.1275331 0.041401867 -0.14318417 0.04315898 -0.2096728 0.16377766 0.09789912 -0.23565455 0.016437212 -0.14987497 0.05336075 -0.060605742 0.3047811 -0.03715074 0.0026029658 -0.14667016 0.025384529 -0.25053245 0.11886099 -0.34567007 -0.23879315 -0.068414345 -0.084704176 -0.022637557 0.08683428 -0.18551658 -0.24716818 0.17194514 -0.06338526 -0.1493447 -0.09031278 0.00115953 0.13665882 -0.20110163 0.19469869 -0.07859994 -0.23865896 -0.06527303 -0.18842284 -0.040557545 0.039572597 -0.07299401 -0.06830894 0.29624873 0.43749747 -0.15055642 0.16457799 -0.067278974 0.1023507 -0.06265757 -0.14912724 0.07214966 -0.01732329 0.12205738 -0.17403026 -0.15268907 -0.20943499 -0.1394924 -0.12925927 -0.10835419 0.15484414 -0.05508275 -0.076287724 -0.022759654 0.022447523 -0.17263941 -0.12657139 -0.1950653 0.05445601 -0.26950112 -0.084064126 0.14872903 0.23187983 0.074436 0.08909396 0.0064458023 -0.16508006 -0.4901368 0.048064187 -0.30672222 0.13682583 0.04654118 0.49330994 -0.00795075 -0.10007122 0.17056945 -0.11371465 -0.12635107 -0.10298116 0.038895007 -0.05314222 0.14394692 -0.124206945 0.16856073 0.07036403 -0.026478982 -0.063986145 -0.11248136 -0.14902665 0.08689276 -0.20872122 -0.07929865 -0.06388306 0.20780417 0.11995441 -0.15823784 0.1833627 0.008907791 0.08615804 -0.15523879 0.16772413 0.0029689781 0.22915542 0.09826355 0.032537658 -0.18076965 -0.35835344 -0.1357816 -0.22623907 -0.042985305 0.24597858 -0.11282631 -0.020828277 0.05786298 0.16718851 0.2866589 -0.12938535 0.13057764 -0.074082665 0.1265528 -0.08337122 0.056425024 0.062062 -0.14699869 0.07858851 0.076289594 -0.33116645 -0.25662518 0.095154196 -0.174254 0.31349736 0.10382101 -0.091463424 0.10120323 0.07123562 -0.035259385 0.084167115 -0.35591865 0.26812622
zu 0.15596232 0.21755548 -0.029050956 -0.08186295 0.025834892 0.2297451 0.067354895 0.32740834 -0.23003729 -0.057466604 0.08518939 -0.0910301 0.13047765 -0.07560084 -0.03682684 -0.14030237 0.005000029 -0.15954931 -0.021533329 -0.3307828 0.15147552 0.20026863 0.09101163 0.17868654 0.054352492 0.26501825 0.0102918185 0.40976536 0.00841447 0.12968236 0.0201725 0.035211865 -0.067962855 -0.21820424 0.091687135 -0.12478833 -0.015196462 -0.18449394 0.09555885 0.11364201 -0.08387411 0.07495105 0.29269013 -0.115862824 0.20443556 0.28811634 -0.17002575 0.084089525 0.2371258 -0.07670891 -0.10308826 0.12106271 0.03117779 -0.1515552 0.079377554 -0.21265425 0.1645376 0.11818521 -0.2491327 0.04894224 -0.11848613 0.05038307 -0.08055536 0.32711142 -0.025999095 0.04269275 -0.13550511 0.020939613 -0.24107574 0.10087366 -0.3606294 -0.24176407 -0.033182796 -0.10431832 -0.03275296 0.06397794 -0.20544416 -0.26131883 0.16097543 -0.055451937 -0.15303266 -0.10574754 0.0052931216 0.10422812 -0.23238651 0.19617593 -0.05482671 -0.23641121 -0.08537941 -0.17113173 -0.055006802 0.029105032 -0.1099638 -0.073212184 0.33038 0.44697884 -0.17801534 0.14714405 -0.04601801 0.121677056 -0.10033488 -0.12366939 0.08370232 -0.006773365 0.11967736 -0.18333322 -0.15878932 -0.22997108 -0.13568577 -0.10356135 -0.086729385 0.17579585 -0.068226606 -0.06214341 -0.05235252 0.042940367 -0.1919918 -0.14890243 -0.21147472 0.061309233 -0.29523093 -0.083270356 0.16084452 0.2525315 0.079271704 0.07068206 -0.008437366 -0.18513572 -0.47442752 0.07876775 -0.3434647 0.16455834 0.018986873 0.49875423 -0.008782649 -0.113599 0.16897191 -0.11075762 -0.10858552 -0.079715855 0.08060123 -0.07793173 0.14830631 -0.10651706 0.16306348 0.06473608 0.0026660487 -0.058116 -0.11571547 -0.15417299 0.086735375 -0.2153285 -0.07833214 -0.027042663 0.2019478 0.12075255 -0.17279676 0.2020711 0.004084402 0.07482638 -0.14839858 0.1713696 -0.0011066669 0.22317599 0.075235516 0.03881008 -0.18057704 -0.3705188 -0.14053474 -0.20958023 -0.047461964 0.24825333 -0.14362039 -0.013210752 0.031677436 0.17119744 0.29727897 -0.14418523 0.15309499 -0.07649143 0.10298659 -0.06920593 0.09211572 0.040195044 -0.11911062 0.085409455 0.072974384 -0.32052967 -0.25679073 0.07500194 -0.19204262 0.3187028 0.08638671 -0.07219769 0.10671502 0.10601248 -0.026339788 0.07783141 -0.36316788 0.28415656
hat 0.102884986 0.2866098 0.010779159 -0.06597394 0.030250499 0.20330083 0.06983017 0.2520698 -0.16203968 -0.054183744 0.02955529 -0.12031353 0.108596 -0.0061111273 0.03260024 -0.113687865 -0.053438127 -0.20881529 -0.021188116 -0.1938087 0.09241009 0.16665642 0.0731603 0.20592356 0.05221779 0.2526798 -0.04718671 0.43851277 0.026577415 0.10012796 -0.03269339 0.093435794 -0.07122135 -0.20048271 0.090072595 -0.14033696 0.024404783 -0.09798678 0.10165641 0.03897964 -0.06984719 -0.006952769 0.28126082 -0.07751068 0.16006789 0.21395662 -0.09118916 0.086840376 0.28188914 -0.042184632 -0.05781254 0.094595246 0.016379626 -0.11620517 0.06576133 -0.28915352 0.09072251 0.07525674 -0.18040101 0.0008055866 -0.08694273 -0.011787852 -0.0012506926 0.304956 -0.023711333 0.055472694 -0.10252196 0.056575138 -0.20964517 0.104285136 -0.2834362 -0.21275096 -0.03765424 -0.076349 0.019761382 0.064178795 -0.19276145 -0.16890943 0.15438056 -0.061941255 -0.14214392 -0.04612029 -0.01695242 0.09429592 -0.17876174 0.19725944 -0.095672175 -0.22177322 -0.10877089 -0.23632747 -0.021536965 0.04104156 -0.055838883 -0.10688311 0.2710372 0.39026013 -0.12209032 0.15661274 -0.056663044 0.04475555 -0.08761893 -0.12974057 0.03941416 0.01133153 0.014607112 -0.06970655 -0.080469556 -0.15035497 -0.11151038 -0.13710761 -0.10207308 0.1562927 -0.024574663 -0.020666393 -0.059991848 0.064770035 -0.10548331 -0.13335854 -0.16204801 -0.007896753 -0.25280678 -0.039894145 0.18805417 0.23414849 0.04154057 0.06074475 -0.023298487 -0.14010555 -0.4201749 0.048115604 -0.2555686 0.119416215 0.10322377 0.43842033 0.017572777 -0.09009344 0.15248206 -0.097171694 -0.09015919 -0.06802001 0.05758554 -0.043649923 0.12113891 -0.09926794 0.10956791 0.060496897 0.058216278 -0.050912354 -0.0670067 -0.15840647 0.034539197 -0.2371548 -0.13146752 -0.039629426 0.2135954 0.063961275 -0.16193001 0.17171161 0.055438284 0.066430286 -0.09705307 0.16196099 -0.010652454 0.20271781 0.10161944 0.043833286 -0.23487967 -0.32662472 -0.11012592 -0.19398245 0.02154146 0.21819133 -0.11173973 -0.054319993 -0.0035206315 0.057265483 0.24889798 -0.07901545 0.09099516 -0.07141715 0.112540685 0.004326886 -0.0007072543 0.075061664 -0.11112228 -0.014847238 0.038420167 -0.3390603 -0.2611609 0.095844276 -0.19516107 0.29393122 0.11573155 -0.066872925 0.07859887 0.039985616 0.020296691 0.1259773 -0.3077935 0.19512099
bei 0.106211066 0.25820917 -0.07361112 -0.18045971 -0.05838559 0.23589829 0.118829176 0.21565787 -0.19109543 0.0023517548 0.014030572 -0.14661403 0.089661635 -0.07324254 -0.0055279466 -0.096850686 -0.012055962 -0.22528593 -0.010076833 -0.2041752 0.0016427612 0.1882458 0.052429006 0.21320552 0.13196152 0.23072231 -0.04479984 0.47523144 0.077225015 0.07331765 -0.064507194 0.14936692 -0.13737777 -0.22124542 0.11850711 -0.18257159 0.1051934 -0.12995303 0.15767582 0.115660794 -0.10792455 0.0552516 0.2665951 -0.16474469 0.1344172 0.23817582 -0.19003509 0.06958223 0.3112758 0.0126843285 -0.055031825 0.15240374 0.12228383 -0.07875381 0.04262992 -0.28081158 0.16276827 0.06188305 -0.19489099 -0.029563522 -0.11043179 -0.028932 0.0032507926 0.41346604 -0.036840383 0.10421974 -0.06974484 0.07234427 -0.23839451 0.1036847 -0.2422031 -0.23266993 -0.058639005 -0.062156167 -0.079634175 0.035680972 -0.20906042 -0.10232683 0.19533318 -0.049959976 -0.118188605 -0.064771675 -0.08187607 0.05750893 -0.22314271 0.25613692 -0.02105541 -0.2362564 -0.12815791 -0.30296054 -0.06675388 0.081459895 -0.04802671 -0.16988328 0.27015084 0.42623413 -0.16574898 0.09440462 -0.06109693 0.060052805 -0.060800817 -0.16739446 0.093458705 -0.046692125 0.14726417 -0.055683427 -0.080164954 -0.17927025 -0.07171008 -0.17326504 -0.08609277 0.14974783 -0.05599542 -0.10014934 0.031925987 0.009007655 -0.092110306 -0.0525021 -0.16309088 -0.12196527 -0.2589737 -0.054584168 0.24598376 0.25513652 0.10575382 0.099789426 -0.030253366 -0.0502078 -0.4246406 0.023804937 -0.27987728 0.14047498 0.039950125 0.45152196 -0.004229123 -0.156213 0.1656509 -0.15549365 -0.13557516 -0.06688781 0.083721615 -0.056571335 0.17715555 -0.10285273 0.11353845 0.04878524 -0.08744653 -0.1059199 0.02867991 -0.13540728 0.0773212 -0.16787183 -0.09215014 -0.07804373 0.25864062 0.07958154 -0.14758846 0.13320163 0.13830924 0.088195086 -0.109449245 0.19331074 -0.03842162 0.21576788 0.18518363 0.05733521 -0.25756225 -0.3609832 -0.13110182 -0.26515153 -0.018010212 0.1945998 -0.06922232 0.0025745004 -0.07214083 0.11655957 0.28954524 -0.123799205 0.07954764 -0.006757143 0.15326704 -0.091111846 -0.030560557 0.08737311 -0.112248726 -0.060480796 0.018956374 -0.40686005 -0.30888104 0.1317887 -0.13471419 0.30360743 0.00864179 -0.09765852 0.13344052 0.01547743 -0.031101398 0.010320638 -0.37546924 0.23941337
hawaii 0.0985062 0.29663566 -0.039632805 -0.12697025 -0.0077913185 0.21318439 0.096132554 0.22931552 -0.16783121 -0.039252065 0.0027729324 -0.123057336 0.08721818 -0.015878044 0.034157183 -0.08835581 -0.048338562 -0.22739248 -0.0025459991 -0.1636351 0.039095003 0.17473684 0.052473176 0.2225088 0.113306455 0.24037078 -0.04899853 0.46089998 0.05225254 0.0786137 -0.067084655 0.1261687 -0.109816074 -0.21166298 0.09330767 -0.14489257 0.09307073 -0.09572864 0.13914302 0.051299565 -0.09483984 0.011261711 0.2831556 -0.1223955 0.13293746 0.21747236 -0.13034326 0.074640036 0.3208638 -0.010841029 -0.04487097 0.11891757 0.074871756 -0.082378276 0.062072046 -0.31120735 0.10408093 0.05481494 -0.1730258 -0.00515331 -0.090680584 -0.007827534 -0.015301093 0.3530396 -0.023719363 0.09209518 -0.070933096 0.09014949 -0.21885861 0.093237504 -0.23271318 -0.19265911 -0.04410173 -0.08454272 -0.018692108 0.05276406 -0.19313358 -0.117648706 0.18071038 -0.058049396 -0.13077413 -0.040805846 -0.06162331 0.072592214 -0.19255124 0.22344702 -0.053050924 -0.21325396 -0.13735755 -0.2877827 -0.06465809 0.059803046 -0.043648317 -0.1536434 0.26734373 0.4042811 -0.12882225 0.12937473 -0.064683564 0.019594671 -0.07662408 -0.1639579 0.043174874 -0.005644333 0.04735579 -0.02856053 -0.0730967 -0.13778365 -0.0821035 -0.15879661 -0.10207667 0.16276428 -0.03550653 -0.055135094 -0.030785397 0.03643031 -0.08945547 -0.0998208 -0.16047676 -0.08140548 -0.24293312 -0.02220271 0.20594545 0.23136982 0.070231535 0.046365276 -0.025983147 -0.09514171 -0.39885882 0.027760122 -0.24238582 0.117572084 0.102590516 0.43286616 0.014210438 -0.11512272 0.13128659 -0.12143018 -0.08500676 -0.05117794 0.0588161 -0.035883985 0.13424344 -0.092020266 0.09550191 0.06635507 0.0040395632 -0.068559304 -0.010608133 -0.15035607 0.032360718 -0.22107376 -0.11570672 -0.059926413 0.23162577 0.05760794 -0.14083712 0.1506259 0.09997348 0.09848865 -0.083892904 0.15712455 -0.011484744 0.21433577 0.13868615 0.06627298 -0.26601794 -0.34292322 -0.10048371 -0.2208286 0.005662708 0.21208748 -0.1054449 -0.018256946 -0.047732342 0.053606123 0.263555 -0.10521611 0.079574265 -0.018609345 0.11901932 -0.026577497 -0.010767124 0.07606762 -0.12007368 -0.05902472 0.023335967 -0.3868184 -0.28306702 0.1199776 -0.1950213 0.2944267 0.063345216 -0.08743591 0.10038769 0.02848283 0.0075263507 0.08715769 -0.33092132 0.20278797
USD 0.080453314 0.28804433 0.038730785 -0.038664974 0.040177085 0.18917164 0.054859545 0.21573664 -0.13051696 -0.08375947 0.011046211 -0.13587233 0.08506301 0.095127404 0.108907126 -0.11369306 -0.10544836 -0.20857494 -0.04476933 -0.08593721 0.13410392 0.13527685 0.079303406 0.20797206 0.053823873 0.2742314 -0.12896542 0.43147045 0.04453364 0.07578587 -0.05230057 0.09355466 -0.04525636 -0.17762984 0.020754077 -0.14180712 0.058370873 -0.045846988 0.08600532 -0.012919748 -0.03854111 -0.05393411 0.2836522 -0.043642204 0.12604837 0.17365623 -0.018083721 0.08696168 0.29447183 -0.03074763 -0.053105377 0.027606076 -0.03516299 -0.08288592 0.050147053 -0.33406112 0.032707673 0.07058175 -0.1430786 -0.0011993584 -0.046851482 -0.015290031 0.006084956 0.2826896 0.01102004 0.05234029 -0.056703057 0.07887355 -0.21092649 0.08887726 -0.2571723 -0.20938241 0.00091859896 -0.08044228 0.09060107 0.042386644 -0.18908319 -0.105824456 0.13290973 -0.042180136 -0.11504942 -0.020080702 -0.0034100297 0.07787102 -0.15927316 0.171133 -0.14626238 -0.18996376 -0.12750416 -0.22197478 0.011366878 0.050832883 -0.06453874 -0.09643229 0.23147352 0.33373046 -0.0677562 0.18706386 -0.10261818 -0.009759527 -0.08385737 -0.13942128 -0.0062556555 0.023805756 -0.08362283 0.0006607883 0.0048461366 -0.084287286 -0.082790956 -0.1039064 -0.107980385 0.120644405 0.0070738466 0.030905893 -0.12171829 0.089922234 -0.056324527 -0.147463 -0.12743782 -0.04896022 -0.24960019 -0.016703706 0.19048242 0.21876404 0.02303545 0.021015529 -0.07036895 -0.13965847 -0.3807542 0.0491129 -0.19658493 0.078946166 0.16058266 0.3776198 0.04875168 -0.06445645 0.11755663 -0.07697221 -0.030393772 -0.034903254 0.031765003 -0.029165825 0.08620515 -0.07237402 0.06225477 0.083040684 0.14888018 -0.04431709 -0.07363122 -0.12668525 -0.017015006 -0.2786214 -0.1818809 -0.05121706 0.203643 0.048623156 -0.1809852 0.12870409 0.0769616 0.05801418 -0.07431149 0.15212399 -0.0051439884 0.16636375 0.08922281 0.036427524 -0.22815774 -0.28818923 -0.091181956 -0.15398526 0.093553334 0.16029187 -0.12399668 -0.06777783 0.0050545274 -0.0063196486 0.21861653 -0.007646209 0.050889198 -0.074655086 0.09760144 0.045636818 -0.015174466 0.10426336 -0.10394314 -0.0750058 0.046019133 -0.30536744 -0.2174678 0.10871097 -0.21965067 0.27621245 0.16515982 -0.10022785 0.0140393935 -0.009097025 0.0945875 0.1667234 -0.25466737 0.11965647
usd 0.06744 0.34555525 0.07522248 -0.0077914516 0.08654973 0.20387673 0.05098796 0.24316934 -0.15790513 -0.10878346 0.04474884 -0.14441493 0.07032541 0.123077855 0.092499636 -0.07879216 -0.130955 -0.26403117 0.028895985 -0.10597988 0.06996977 0.07671102 0.0660964 0.23646164 0.0606219 0.2865329 -0.11175944 0.41501638 0.057334337 0.08010712 -0.07644785 0.084941745 -0.046518564 -0.21088628 0.0809296 -0.1352924 0.03178108 0.0124923065 0.0871197 -0.063973375 -0.056468107 -0.115578756 0.3313014 0.00814723 0.12060649 0.14895181 -0.0016637978 0.13197246 0.26556036 -0.07507346 -0.035046685 0.08117748 -0.082884595 -0.0873015 0.062323846 -0.3643094 -0.021500474 0.0014926328 -0.16780092 0.011399829 -0.047326542 -0.0628381 0.09955143 0.30867985 -0.021027243 0.07786866 -0.061340526 0.078008994 -0.19340228 0.1111221 -0.27480957 -0.24067554 0.0037155896 -0.069006525 0.050717283 0.08685758 -0.23098004 -0.14986232 0.18686122 -0.06763341 -0.16402249 -0.008495689 0.040057585 0.051085692 -0.10006818 0.15940362 -0.17562805 -0.22672683 -0.092719994 -0.29342762 -0.010749164 0.046235707 -0.05765648 -0.15970838 0.2508115 0.30461532 -0.08452878 0.25247526 -0.026101328 -0.014036864 -0.116129205 -0.16418992 -0.015500182 0.049257226 -0.12570125 0.016379334 -0.015009389 -0.070808455 -0.1440711 -0.12921283 -0.13204215 0.15532623 0.013622671 0.06627196 -0.1400786 0.15273781 -0.078545615 -0.1829521 -0.19744492 -0.051644925 -0.26398304 -0.056232054 0.23311143 0.20809983 -0.029972207 0.05469889 -0.019750176 -0.18237174 -0.3348763 0.03801262 -0.20564343 0.054147948 0.17866944 0.3860951 0.08553023 -0.08605346 0.12594165 -0.059828036 -0.058780063 -0.058382355 0.0850833 -0.012578321 0.06345151 -0.07315346 0.10044329 0.062626675 0.15375187 -0.06821145 -0.057974823 -0.1996182 -0.019084644 -0.27448687 -0.18589942 -0.057871204 0.23553552 -0.019610507 -0.18481903 0.19164662 0.06873957 0.039292622 -0.033304058 0.13125756 -0.033225473 0.17288496 0.02113337 0.03139866 -0.29985338 -0.3262387 -0.12628956 -0.18703699 0.10843241 0.14517044 -0.16080262 -0.16360417 -0.009169517 -0.036828425 0.16425458 -0.0039326767 0.101452865 -0.068742506 0.14380504 0.11367854 -0.0017301249 0.1139586 -0.06146901 -0.11350081 0.070117205 -0.30874297 -0.27508494 0.10746802 -0.24394543 0.22742839 0.19230984 -0.089624666 0.057871174 0.010730986 0.11510993 0.20377134 -0.30009288 0.11440182
white 0.0707971 0.32571074 0.026481388 -0.028460646 0.052786 0.20570229 0.049963158 0.2077952 -0.14676292 -0.059435345 0.022841508 -0.12659845 0.08553176 0.03776194 0.07915713 -0.117435426 -0.09292765 -0.25568485 -0.018935299 -0.117525205 0.0862964 0.12434106 0.0705551 0.20053427 0.04133853 0.24020573 -0.06971788 0.434627 0.026816458 0.082188845 -0.07374652 0.10362641 -0.0696718 -0.20828545 0.07956846 -0.12074477 0.050494276 -0.0708445 0.07431573 0.00075802585 -0.055951603 -0.055090178 0.2803254 -0.06930228 0.12149441 0.18274032 -0.04209189 0.09101172 0.2868074 -0.02872349 -0.0494113 0.08192121 -0.01586842 -0.095695876 0.060356338 -0.31567952 0.05110401 0.04647673 -0.15840514 -0.0016361525 -0.0634076 -0.03392777 0.016336642 0.29713213 -0.0029871147 0.06687545 -0.0731062 0.08667634 -0.19102696 0.08587468 -0.26980188 -0.22336979 -0.041052766 -0.05264216 0.060992435 0.06407712 -0.20786817 -0.13537474 0.13731088 -0.059608612 -0.13603899 -0.031743735 -0.027778558 0.09569068 -0.14774725 0.18032075 -0.11597161 -0.20115946 -0.111821145 -0.24872917 -0.0033333143 0.028967809 -0.023642188 -0.11187425 0.23803043 0.3442885 -0.09463396 0.17181274 -0.056129266 0.004968261 -0.10228832 -0.1276377 0.0056730765 0.033188693 -0.05232276 -0.018656213 -0.031770647 -0.124218054 -0.104504675 -0.13786751 -0.100697964 0.14824803 -0.02127091 0.021895515 -0.09581113 0.08233607 -0.0802196 -0.15433143 -0.1480954 -0.011761426 -0.23897985 -0.020253465 0.20037368 0.23273253 0.036077756 0.035666376 -0.04761627 -0.118545 -0.39719203 0.023837015 -0.22021765 0.101835534 0.13713309 0.4017025 0.048897993 -0.06685108 0.14891359 -0.08097927 -0.067400485 -0.06437857 0.07105338 -0.04379711 0.086972006 -0.07659673 0.09683257 0.054079197 0.1169709 -0.040259924 -0.054238584 -0.1766459 0.009805462 -0.26246226 -0.16131234 -0.03291222 0.21111466 0.040496975 -0.18105735 0.1637055 0.09712349 0.065094896 -0.053691514 0.15485415 -0.020707686 0.17572272 0.08956882 0.052269045 -0.2696626 -0.31682405 -0.09276031 -0.19477272 0.054306433 0.21854846 -0.12577252 -0.084046155 -0.011002102 0.0017596888 0.21494108 -0.06581188 0.07440896 -0.08987134 0.10311205 0.05004175 -0.022634907 0.08826279 -0.08686712 -0.05478399 0.022272112 -0.3364704 -0.26010314 0.103397906 -0.2097117 0.26523468 0.13998678 -0.059058484 0.05327476 0.010264496 0.05621305 0.15678407 -0.26283464 0.15494488
http://schema.org/FoodEstablishment 0.09311125 0.2880555 0.04834178 -0.024165975 0.054260056 0.19148746 0.052328706 0.21296544 -0.12065893 -0.05750023 0.024552455 -0.12401512 0.0879805 0.094098695 0.09264555 -0.11462248 -0.101403184 -0.20701557 -0.038183507 -0.09654248 0.104746945 0.12619093 0.056678735 0.2191453 0.044268128 0.2614901 -0.1175424 0.42758602 0.032984365 0.07700709 -0.04781164 0.087048404 -0.05607774 -0.17083912 0.026008444 -0.11819139 0.077364594 -0.057198964 0.066611655 -0.023501508 -0.042030796 -0.062158406 0.28339186 -0.051547818 0.13799861 0.17063324 -0.024277978 0.096391596 0.29502857 -0.041028824 -0.04614406 0.016935352 -0.032047883 -0.07198251 0.057398267 -0.31607646 0.02130201 0.058309384 -0.14284368 0.0009616938 -0.04136196 -0.007148355 0.009618615 0.27171934 0.0019439672 0.048898723 -0.058943246 0.08091018 -0.20456608 0.08851247 -0.2278057 -0.20664674 -0.006907834 -0.094793655 0.062018253 0.05300937 -0.19297828 -0.10714809 0.11806445 -0.02495911 -0.10159477 -0.02481841 -0.025992448 0.071260005 -0.15336843 0.15004593 -0.13393454 -0.186877 -0.11023899 -0.23595648 -0.0070348554 0.048197668 -0.062168203 -0.10244598 0.20986791 0.31309393 -0.060898278 0.18512438 -0.08960765 -0.0045001814 -0.07076646 -0.14370549 -0.010458809 0.03552545 -0.10079165 0.012260242 -0.0066567105 -0.07741177 -0.0761059 -0.10411155 -0.09697657 0.114032075 0.013781874 0.026300214 -0.11440843 0.07950278 -0.053103395 -0.15736349 -0.12703581 -0.035287935 -0.2133617 -0.008066398 0.17175773 0.22499669 0.005241475 0.010855789 -0.05534371 -0.13086602 -0.36048618 0.025047882 -0.19120371 0.07928137 0.17492399 0.34808797 0.075724795 -0.055700343 0.11826561 -0.07807054 -0.029991863 -0.028536435 0.04553706 -0.017662283 0.06767931 -0.059762977 0.06904446 0.105114155 0.12410131 -0.028931512 -0.066864476 -0.13458805 -0.034428526 -0.26956135 -0.16223486 -0.02758478 0.21236345 0.039331727 -0.15623206 0.14251009 0.062061574 0.06499761 -0.07348644 0.13530055 0.0027763126 0.13062166 0.090715684 0.036596023 -0.23815104 -0.2731717 -0.077325866 -0.15544 0.10343358 0.17399374 -0.122608095 -0.08984057 0.024571776 -0.029140556 0.19770458 -0.023470234 0.06190598 -0.0653613 0.09039527 0.056772437 -0.026722241 0.0989761 -0.09624276 -0.07366971 0.033292733 -0.29050326 -0.21977004 0.098913886 -0.22726671 0.26016843 0.16163123 -0.10163234 0.019838303 -0.010797738 0.081594884 0.1700599 -0.2357867 0.116558775
